tree
version=v4
num_class=1
num_tree_per_iteration=1
label_index=0
max_feature_idx=20
objective=lambdarank
feature_names=feat_seniority_slope feat_product_company_ratio feat_avg_tenure_months feat_recent_tenure_months must_have_retrieval_evidence must_have_retrieval_evidence_strong feat_unverified_claim_ratio claimed_high_prof_skill_count verified_skill_count verified_ml_relevant_skill_count is_technical_title feat_behavioral_reliability feat_location_match feat_notice_period_score best_institution_tier_score sig_has_github github_score_clean soft_neg_title_chasing_score soft_neg_framework_tutorial_ratio feat_semantic_similarity_binned profile_years_of_experience
feature_infos=[-2:1.9999999999999996] [0:1] [8:98] [8:228] [0:1] [0:1] [0:1] [0:19] [0:5] [0:5] [0:1] [0.13:0.9017222222222222] [0:1] [0.10000000000000001:1] [1:4] [0:1] [0:96.900000000000006] [0:2] [0:0.66666666666666663] [0:9] [1:16.899999999999999]
tree_sizes=3540 3488 3551 3524 3510 3501 3511 3512 3493 3503 3517 3523 3516 3542 3546 3557 3491 3497 3504 3508 3505 3500 3496 3508 3507 3525 3504 3504 3517 3498 3494 3515 3500 3503 3549 3540 3542 3495 3516 3539 3515 3509 3566 3540 3502 3525 3519 3513 3513 3536 3510 3552 3512 3539 3513 3517 3515 3556 3529 3557 3574 3539 3570 3571 3593 3558 3573 3564 3561 3576 3600 3586 3589 3570 3595 3582 3584 3590 3585 3572 3616 3603 3621 3584 3595 3567 3606 3602 3617 3619 3612 3621 3624 3589 3607 3524 3629 3595 3618 3621 3620 3609 3629 3610 3618 3639 3607 3627 3575 3633 3622 3630 3640 3627 3597 3648 3669 3667 3582 3682 3681 3626 3685 3627 3659 3645 3654 3596 3616 3700 3643 3677 3647 3679 3624 3693 3639 3669 3701 3626 3689 3631 3666 3707 3706 3714 3709 3706 3727 3704 3706 3715 3715 3741 3734 3718 3728 3710 3711 3730 3701 3716 3697 3696 3742 3721 3717 3599 3736 3720 3727 3710 3708 3743 3746 3769 3729 3715 3605 3515 3731 3751 3604 3389 3385 3487 3505 3753 3527 3120 2926 3406 2936 3139 3179 3036 3045 3385 2927 2387 2959 3771 2839 3615 2465 2703 2471 2564 2328 2449 2874 2687 2358 2576 2011 2110 2456 2112 2227 1637 1981 2094 1859 1902 1766 1859 1980 1866 1849 1525 1527 1868 1413 1522 1663 1659 1300 1632 1404 1399 1406 1293 1071 1190 1077 1065 1087 1070 1078 1074 1081 1069 1085 1069 972 858 847 844 845 854 843 841 731 737 846 854 857 741 733 859 728 735 732 740 736 740 735 736 738 626 741 625 623 621 625 622 615 622 622 622 624 617 621 624 622 505 617 623 625 617 626 625 618 504 626 623 508 627 618 504 620 503 504 620 613 505 502 620 503 503 624 504 503 624 502 504 621 507 507 505 509 504 507 622 504 503 504 625 505 505 504 505 492 507 507 505 505 493 509 491 506 506 492 509 506 505 508 503 503 502 505 502 505 505 491 504 508 504 503 389 494 503 500 387 506 504 505 508 502 506 507 504 507 500 505 505 507 508 505 501 506 504 506 506 504 504 505 505 503 505 507 500 503 506 505 505 385 504 503 505 504 505 391 502 505 502 500 384 502 388 390 387 500 508 502 505 391 507 500 387 391 504 387 509 384 391 504 505 387 503 390 505 511 506 391 386 505 390 505 503 502 388 387 389 390 504 386 503 502 391 391 503 505 503 386 507 507 506 506 503 383 503 386 507 506 387 390 391 386 382 506 386 390 390 383 383 390 390 386 386 387 390 503 385 507 387 386 386 384 505 386 390 391 385 389 385 388 386 389 384 383 386 391 389 386 386 386 388 386 385 391 386 386 385 385 386 385 388 391 390 386 386 386 389 385 387 386 390 383 387 386 386 386 390 385 385 386 385 387 387 390 386 385 389 389 385 385 387 386 385 386 387 387 390 390 386 386 386 386 389 389 385 388 387 385 386 389 386 385 390 386 385 387 386 385 385 390 391 390 390 386 389 391 386 386 386 385 385 385 386 385 381 385 385 390 385 386 385 391 389 386 386 387 385 388 386 382 383 386 384 385 384 386 387 390 388 387 386 386 386 386 385 387 387 384 385 386 390 386 389 386 390 387 384 389 386 385 387 386 387 390 384 386 387 387 384 388 383 387 390 386 385 386 386 391 389 386 384 385 386 390 386 385 389 386 385 385 386 385 385 384 385 384 385 386 387 386 386 386 390 391 389 389 385 385 387 386 383 386 385 390 386 387 385 384 384 386 386 387 384 386 391 390 385 386 390 391 386 387 391 388 391 384 387 390 389 387 384 386 385 390 385 390 385 383 389 386 387 385 384 384 387 384 391 390 386 386 385 386 386 386 386 383 385 386 386 385 390 386 391 388 383 386 388 384 391 387 386 390 383 385 390 386 386 391 385 386 391 386 387 385 387 391 386 384 385 386 384 386 389 391 387 385 385 382 387 389 385 386 386 383 385 391 390 387 386 384 386 383 386 389 386 384 386 385 385 390 385 390 386 384 384 391 387 386 389 391 384 387 384 386 384 390 390 387 387 385 388 387 388 385 386 384 385 386 385 384 386 384 386 389 391 386 385 386 385 385 385 390 386 386 386 391 390 391 384 391 386 384 387 387 386 385 386 384 382 391 390 385 385 387 386 386 384 384 381 388 391 385 388 389 385 385 389 386 386 386 386 384 386 385 385 386 385 386 386 385 385 390 386 384 385 388 386 389 385 391 386 386 389 383 390 388 383 388 386 387 383 384 384 387 385 385 384 387 386 385 386 385 384 387 390 384 386 391 384 387 386 386 386 385 391 387 386 386 384 385 384 384 386 383 385 384 391 387 384 387 385 386 385 385 391 385 383 385 385 389 385 386 387 386 386 386 385 387 386 386 386 386 386 385 387 384 382 385 386 386 391 383 384

Tree=0
num_leaves=31
num_cat=0
split_feature=10 1 9 6 1 8 1 19 20 16 18 2 2 18 20 19 19 12 20 14 1 18 2 2 18 3 9 12 2 1
split_gain=66.5893 23.9875 2.27738 2.38509 1.75921 0.806746 1.19182 0.698721 0.529209 0.467636 0.412934 0.30772 0.319282 0.305265 0.298106 0.406755 0.294884 0.277278 0.221491 0.193338 0.178557 0.155558 0.153462 0.125568 0.12502 0.12046 0.0729285 0.0390731 0.0331679 0.0282541
threshold=1.0000000180025095e-35 1.0000000180025095e-35 1.5000000000000002 0.2678571428571429 1.0000000180025095e-35 1.0000000180025095e-35 0.5545004500450047 6.5000000000000009 9.3500000000000032 59.250000000000007 0.069047619047619066 14.550000000000002 38.875000000000007 0.45000000000000007 8.5500000000000025 6.5000000000000009 5.5000000000000009 0.92500000000000016 1.6500000000000001 1.5000000000000002 0.61471649872161238 0.13809523809523813 57.833333333333336 14.125000000000002 0.095454545454545472 27.500000000000004 1.0000000180025095e-35 1.0000000180025095e-35 29.450000000000003 0.40056497175141254
decision_type=2 2 2 2 2 2 2 2 2 8 2 2 2 2 2 2 2 2 2 2 2 2 2 2 2 2 2 2 2 2
left_child=4 -2 3 5 -1 14 7 24 11 18 -11 23 13 -13 15 21 20 -17 -8 25 -16 -3 -14 27 -7 28 -9 -5 -10 -18
right_child=1 2 -4 8 -6 6 9 26 19 10 -12 12 22 -15 16 17 29 -19 -20 -21 -22 -23 -24 -25 -26 -27 -28 -29 -30 -31
leaf_value=-0.099999999999999908 -0.099999999999999853 -0.023879008312988347 0.098499712122915875 0.011054359188876779 -0.061085590442192708 -0.030535155875905606 -0.012102966992996279 -0.01374775205033249 -0.0092300559954266708 0.026928056441429888 0.088585828341583198 0.083484340372947746 0.052285802941077854 -0.040119638814695373 0.085859281691851808 0.0055306538832098672 -0.054347205606376875 0.087603075060453284 0.083440715942448229 0.054855281460237229 0.00039775896618004662 0.051899155023342775 -0.051135856681446615 -0.023434067484799228 0.064057022159834387 0.058570420315954212 0.084804059675888527 0.064286459848596642 -0.059590838810545194 -0.0040305340021744816
leaf_weight=3.5354411955049754 2.2493427597946747 0.93631672843912983 5.7396387389308066 0.047207905634420011 16.268178455618909 0.66074558413674811 0.062797332881018852 0.020668822930019815 0.05132364580640647 1.0920252779360451 0.36141880243303592 8.8589419274430785 0.59557005962779008 0.050235092610820042 0.27846377880996431 0.24472517800313642 0.047942109267751221 0.17759006633423269 1.7810111457292803 0.16593598367762752 0.078306133011210477 0.073004708072403446 0.038167663849890232 0.087498341890750453 0.036880434592603706 0.038380471949494677 0.204536593555531 0.12778105257530115 0.090072751874686219 0.066736441207467578
leaf_count=4428 2606 3544 3597 79 64393 703 133 120 69 2508 361 10359 1085 78 197 1280 48 91 1871 536 424 243 6 53 108 123 205 368 9 375
internal_value=2.87788e-09 0.0555282 0.0714198 0.0618692 -0.0680328 0.0372236 0.0494112 -0.00081503 0.0767355 0.0634685 0.0422601 0.0788791 0.0803482 0.0827874 0.0101976 -0.00115847 0.0446822 0.0400434 0.0801866 0.0159358 0.0671016 -0.0183979 0.0460571 0.0254717 -0.0255345 -0.0199874 0.0757592 0.0499257 -0.041311 -0.0250657
internal_weight=44.0669 24.2633 22.0139 16.2743 19.8036 6.12317 4.22008 0.922831 10.1511 3.29725 1.45344 9.8054 9.54291 8.90918 1.90309 1.43164 0.471448 0.422315 1.84381 0.345713 0.35677 1.00932 0.633738 0.262487 0.697626 0.179777 0.225205 0.174989 0.141396 0.114679
internal_count=100000 31179 28573 24976 68821 12211 6009 1136 12765 4873 2869 12028 11528 10437 6202 5158 1044 1371 2004 737 621 3787 1091 500 811 201 325 447 78 423
is_linear=0
shrinkage=0.05


Tree=1
num_leaves=31
num_cat=0
split_feature=8 4 4 1 8 6 1 20 1 18 3 10 2 14 11 2 3 12 1 14 2 20 20 15 6 20 2 2 15 2
split_gain=191.899 7.01682 1.82695 1.37552 0.375602 0.287122 0.207609 0.370288 0.432239 0.21337 0.194752 0.0859932 0.0722431 0.255758 0.0497407 0.1822 0.353917 0.0323993 0.09115 0.0327875 0.0320417 0.0268407 0.0574399 0.0222127 0.0427937 0.0195086 0.017607 0.0727949 0.0170843 0.0325395
threshold=1.5000000000000002 1.0000000180025095e-35 1.0000000180025095e-35 0.12543706293706297 2.5000000000000004 0.59166666666666679 0.57770876466528642 8.7500000000000018 0.79351332398316987 0.27922077922077926 17.000000000000004 1.0000000180025095e-35 29.633333333333336 2.5000000000000004 0.45086111111111121 31.900000000000002 13.500000000000002 1.0000000180025095e-35 0.22742946708463954 2.5000000000000004 19.937500000000004 4.4500000000000011 3.9500000000000006 1.0000000180025095e-35 0.93095238095238109 3.1500000000000008 31.900000000000002 26.225000000000005 1.0000000180025095e-35 48.583333333333336
decision_type=2 2 2 2 2 2 2 2 2 2 2 2 2 2 2 2 2 2 2 2 2 2 2 2 2 2 2 2 2 2
left_child=1 11 3 -2 5 6 12 9 -9 -8 -4 -1 20 -14 15 16 -6 26 -19 -20 -5 22 -12 24 -3 -7 27 -16 29 -27
right_child=2 23 10 4 14 25 7 8 -10 -11 21 -13 13 -15 17 -17 -18 18 19 -21 -22 -23 -24 -25 -26 28 -28 -29 -30 -31
leaf_value=-0.092321600649990357 -0.091160156120931118 0.098967930696298334 0.063340901692892776 0.056760520454205932 0.079617218651294563 0.057533187205585146 0.057863257962866323 -0.098159225947192605 0.032729271150543068 -0.016229412587280685 0.073575970736630511 -0.097576332028995669 -0.0089652474866927963 0.070716521462146145 0.076588825143162814 0.073470559629327276 -0.096572061232232317 -0.095239853749731651 0.069329436809713804 0.074702958194994479 0.074443708112150508 0.09602715845026033 0.096273195718612745 0.09744149194532388 0.040667805230570134 0.056444225421520437 0.079925372583815435 0.043427635972051938 0.079322017418708202 0.080372105546373723
leaf_weight=16.831439650617547 0.13693866241010511 0.071762847903300009 0.52274140467125008 0.28543694129257691 0.065030216115704031 0.13147180488976973 8.4275428785613204 0.076489271314131524 0.35967433153564343 0.098301479822112792 0.44102381424272408 14.487202899135807 0.12867477349846002 0.46329484074340144 1.832064879490644 0.40762667834133026 0.05074292071913078 0.0081411532883056692 5.4591682098753136 5.9141018425934817 2.4987454789525145 6.9064761545741931 0.75754759320989251 0.38635237984271953 0.056068358244374394 0.2583814570170947 2.4133710144906217 0.18192708898641274 2.1276316042949475 0.31566734425723553
leaf_count=68821 472 24 44 90 11 54 2363 124 178 61 44 23979 146 63 152 46 127 15 1134 859 278 211 34 122 25 127 104 110 179 3
internal_value=-2.93929e-08 -0.0917444 0.0725257 0.0669644 0.0676517 0.0619872 0.0586911 0.0547102 0.00977558 0.057009 0.0929207 -0.0947523 0.0692583 0.0533963 0.0729136 0.0577488 0.00239413 0.0734157 0.072004 0.0721237 0.0726308 0.0948285 0.0879216 0.0914637 0.0733968 0.0763415 0.0770449 0.0735933 0.0772567 0.0696021
internal_weight=72.101 31.8328 40.2682 31.6404 31.5035 15.1713 12.3382 8.96201 0.436164 8.52584 8.62779 31.3186 3.37615 0.59197 16.3322 0.5234 0.115773 15.8088 11.3814 11.3733 2.78418 8.10505 1.19857 0.514184 0.127831 2.83315 4.42736 2.01399 2.70168 0.574049
internal_count=100000 92971 7029 6696 6224 3666 3303 2726 302 2424 333 92800 577 209 2558 184 138 2374 2008 1993 368 289 78 171 49 363 366 262 309 130
is_linear=0
shrinkage=0.05


Tree=2
num_leaves=31
num_cat=0
split_feature=4 8 20 8 7 11 20 12 2 8 11 19 19 2 6 5 7 1 20 1 8 7 7 1 15 11 8 20 6 1
split_gain=237.978 0.173022 0.161264 0.321295 0.306936 0.117701 0.0988441 0.0862807 0.210819 0.222677 0.0931951 0.0798065 0.0646747 0.0544296 0.0987044 0.00960696 0.00926756 0.00748126 0.00417416 0.0045675 0.00157645 0.00152763 0.00287963 0.000980866 0.000955462 0.000866446 0.000839798 0.000735992 0.000690639 0.000605562
threshold=1.0000000180025095e-35 1.5000000000000002 4.0500000000000007 4.5000000000000009 4.5000000000000009 0.67041666666666677 7.7500000000000009 1.0000000180025095e-35 31.900000000000002 2.5000000000000004 0.59141666666666681 7.5000000000000009 5.5000000000000009 51.250000000000007 0.47222222222222227 1.0000000180025095e-35 1.0000000180025095e-35 0.12543706293706297 10.050000000000002 1.0000000180025095e-35 1.5000000000000002 4.5000000000000009 1.5000000000000002 0.12543706293706297 1.0000000180025095e-35 0.47652777777777788 2.5000000000000004 4.3500000000000005 0.8377192982456142 1.0000000180025095e-35
decision_type=2 2 2 2 2 2 2 2 2 2 2 2 2 2 2 2 2 2 2 2 2 2 2 2 2 2 2 2 2 2
left_child=1 16 3 4 -2 -6 15 8 23 -10 11 -11 -12 17 -15 20 29 -9 19 -18 24 22 25 -3 -4 -21 -19 -22 -17 -1
right_child=2 7 6 -5 5 -7 -8 13 9 10 12 -13 -14 14 -16 28 18 26 -20 21 27 -23 -24 -25 -26 -27 -28 -29 -30 -31
leaf_value=-0.084066571545198837 0.070749063631032269 -0.084467635088387477 0.087028597636000585 0.084200227009080114 0.022160927190353025 -0.058389113891426925 0.077181276491689252 -0.084252999008826129 -0.095701853110019802 -0.097155397687366335 0.01444395070126113 -0.0066042699441673947 -0.046552105251223122 -0.096763654302940857 0.012407492847315229 0.089128857464223041 -0.084002539581411823 -0.096218644239659742 -0.085012642588804185 -0.086485815307550271 0.086781665158540813 -0.085904811824527583 -0.089248499861126374 -0.096657427192787679 0.088572964928392714 -0.087730607083138512 -0.097295932810244207 0.087508820298978954 0.090052527728581397 -0.085253688239596254
leaf_weight=1.1535443667962741 0.24430343921994668 0.016789913002865253 1.2547240414642171 1.2786147475708276 0.098428000273997895 0.084101697808364406 2.2342233459785339 0.12166569166583929 0.21382609492866322 0.070425068581243977 0.12053235759958625 0.037178268510615453 0.067961824272060767 0.057393782306462415 0.03238802551641129 5.1160802249796671 0.92777763452613626 3.6307468859304208 2.3027017734711981 2.1687218023289443 4.4255795845383572 1.0888702136289783 2.7033664218615741 0.96496151253813878 4.9624892418796662 3.9333289978821995 3.605544663296314 16.283829217660241 3.3481767696503084 15.630999275817883
leaf_count=3623 14 52 34 14 22 28 29 380 200 46 30 12 33 44 12 28 2928 2986 7553 6512 19 3498 7040 755 85 10914 2146 204 27 50732
internal_value=1.64721e-08 -0.0877746 0.0866994 0.0716612 0.0340997 -0.014953 0.087381 -0.0938782 -0.0829021 -0.0568204 -0.0287423 -0.0658689 -0.00754826 -0.0960765 -0.0573811 0.0880249 -0.0859504 -0.0965487 -0.0869457 -0.087357 0.087563 -0.0876716 -0.08789 -0.096449 0.0882613 -0.0872882 -0.0967554 0.0873534 0.0894942 -0.0851721
internal_weight=78.1793 38.8487 39.3306 1.70545 0.426833 0.18253 37.6251 8.93941 1.49168 0.509924 0.296098 0.107603 0.188494 7.44774 0.0897818 35.3909 29.9093 7.35796 13.1248 10.8221 26.9266 9.89429 8.80542 0.981751 6.21721 6.10205 7.23629 20.7094 8.46426 16.7845
internal_count=100000 99496 504 78 64 50 426 6696 1128 321 121 58 63 5568 56 397 92800 5512 38445 30892 342 27964 24466 807 119 17426 5132 223 55 54355
is_linear=0
shrinkage=0.05


Tree=3
num_leaves=31
num_cat=0
split_feature=4 5 8 10 7 3 16 1 6 1 16 2 6 7 9 6 0 6 16 16 16 9 1 6 1 16 7 16 2 2
split_gain=203.67 0.14727 0.088072 0.021325 0.0157954 0.00919203 0.0146542 0.00701629 0.00528961 0.00493897 0.00459312 0.00456125 0.00424284 0.0031477 0.00283151 0.00710548 0.0059262 0.00274802 0.00203028 0.00168218 0.00130384 0.00069868 0.000444792 0.000430216 0.000262367 0.000298162 0.000173875 0.000177015 0.000138837 0.000133133
threshold=1.0000000180025095e-35 1.0000000180025095e-35 1.5000000000000002 1.0000000180025095e-35 13.500000000000002 19.500000000000004 80.350000000000009 0.12543706293706297 0.79285714285714304 1.0000000180025095e-35 64.350000000000009 38.875000000000007 0.41428571428571431 1.0000000180025095e-35 1.5000000000000002 0.79285714285714304 2.4433606531460011e-16 0.73030303030303034 80.350000000000009 56.650000000000013 56.050000000000004 1.5000000000000002 1.0000000180025095e-35 0.47222222222222227 0.5545004500450047 59.250000000000007 2.5000000000000004 59.250000000000007 27.916666666666668 38.583333333333336
decision_type=2 2 2 2 2 2 8 2 2 2 8 2 2 2 2 2 2 2 8 8 10 2 2 2 2 8 2 8 2 2
left_child=2 4 3 22 5 6 8 -4 12 -5 -3 14 -2 -11 15 16 -7 -12 20 -17 -16 26 -1 24 -15 -26 27 -9 -20 -25
right_child=1 10 7 9 -6 11 -8 21 -10 13 17 -13 -14 23 18 19 -18 -19 28 -21 -22 -23 -24 29 25 -27 -28 -29 -30 -31
leaf_value=-0.078716960241782985 0.075824771012127201 0.081917756517462234 -0.078886948582440677 -0.078567805714279446 0.070680839159621756 0.070160362802797707 0.065857914516339572 -0.088342279618211783 0.077595544985838663 -0.081021742656986848 0.079317180596523318 0.073244376812967804 0.069442707030070092 -0.081153319175881644 0.076696641382535236 0.077920734384909901 0.075842765873765094 0.081271470748036437 0.077280014271745343 0.0757273817337 0.075177354951934214 -0.089470603164750501 -0.079539348289088596 -0.08345032444410358 -0.083580780707825764 -0.082120977487279978 -0.088533228242227313 -0.086820741381923472 0.077834705533806808 -0.082507896554579421
leaf_weight=1.7642116234346783 0.49312526301947179 11.775188194587829 0.18778025600477066 0.84808510160655615 1.7078728210472025 0.96654571811450896 0.57446420425549138 0.35055575269507266 0.95989242679206643 2.4312338538293243 3.5247717623133203 1.3020015798392695 0.551854328274203 0.31694971834076557 4.3961284652468722 1.5526737949840028 0.87348372893757187 3.673492624249775 2.0462308966380087 2.0004150364984525 2.0804658413981088 1.865559583995491 24.161108907166636 4.4208922597463243 0.60972046552342329 0.82048833303269941 0.90969085023971274 0.42038774321554229 2.5141125218942761 0.40944638886139717
leaf_count=4428 12 32 472 2148 35 45 38 556 18 6201 12 39 28 834 47 26 22 31 23 50 26 3375 64393 10390 1372 2013 1539 754 20 1021
internal_value=5.96682e-08 0.078081 -0.0809986 -0.080236 0.0752991 0.0756874 0.0728985 -0.0883057 0.0749159 -0.0822156 0.0813095 0.0760931 0.0724544 -0.082559 0.0763188 0.0753798 0.0728579 0.0803145 0.0767777 0.0766859 0.0762086 -0.0888045 -0.0794834 -0.0831272 -0.0824549 -0.0827433 -0.088065 -0.0875126 0.0775858 -0.0833704
internal_weight=80.5088 40.9927 39.5161 35.7821 22.0193 20.3114 2.57934 3.73397 2.00487 9.85682 18.9735 17.7321 1.04498 9.00873 16.4301 5.39312 1.84003 7.19826 11.0369 3.55309 6.47659 3.54619 25.9253 6.5775 1.74716 1.43021 1.68063 0.770943 4.56034 4.83034
internal_count=100000 504 99496 92800 429 394 96 6696 58 23979 75 298 40 21831 259 143 67 43 116 76 73 6224 68821 15630 4219 3385 2849 1310 43 11411
is_linear=0
shrinkage=0.05


Tree=4
num_leaves=31
num_cat=0
split_feature=4 5 20 3 20 8 20 16 9 6 12 16 16 3 1 16 7 1 20 13 7 7 2 20 16 18 3 1 9 18
split_gain=182.791 0.178617 0.112826 0.083549 0.264785 0.0480533 0.0158372 0.0173935 0.00969382 0.0161664 0.0117998 0.0219432 0.00546902 0.00519097 0.00483241 0.004507 0.00406076 0.00193482 0.00250281 0.00108514 0.000758116 0.00190998 0.000698445 0.000533775 0.000517995 0.000470572 0.000467476 0.000408899 0.000392651 0.000355658
threshold=1.0000000180025095e-35 1.0000000180025095e-35 4.1500000000000012 31.500000000000004 3.9500000000000006 1.5000000000000002 6.8500000000000005 24.050000000000004 1.5000000000000002 0.79285714285714304 0.27500000000000008 63.550000000000004 80.350000000000009 36.500000000000007 0.12543706293706297 80.350000000000009 1.0000000180025095e-35 1.0000000180025095e-35 10.050000000000002 0.57500000000000007 4.5000000000000009 1.5000000000000002 20.81666666666667 6.6500000000000012 31.650000000000002 0.080128205128205135 23.000000000000004 1.0000000180025095e-35 1.5000000000000002 0.07417582417582419
decision_type=2 2 2 2 2 2 2 10 2 2 2 8 8 2 2 8 2 2 2 2 2 2 2 2 10 2 2 2 2 2
left_child=5 2 3 4 22 16 8 -8 9 10 -4 -12 26 23 -7 19 27 -18 20 -10 21 25 -2 -3 -21 -19 -11 -1 -16 -22
right_child=1 13 6 -5 -6 14 7 -9 15 12 11 -13 -14 -15 28 -17 17 18 -20 24 29 -23 -24 -25 -26 -27 -28 -29 -30 -31
leaf_value=-0.074529436869038457 -0.035707010584654593 0.076808029389940885 0.071980461533871692 0.062156698319470717 0.071625828732269095 -0.074681779728054509 0.071632439209353624 0.061439814962515882 0.071881933279739185 0.072917437180043426 0.067151310531956332 0.051819977515184912 0.067928639169551205 0.075414372805457 -0.082156915851809495 0.073032663886797369 -0.074486822614545173 -0.076491814151216364 -0.075231258261314826 0.071258397361528836 -0.077712235147956638 -0.078118035631024985 -0.027555341727822553 0.077433520819090773 0.070136922558841228 -0.078256950749864704 0.071657136822925627 -0.075378315460134515 -0.083318425762418158 -0.075433455471217992
leaf_weight=1.527103709726364 0.056023118144369444 6.4078013848047721 0.44415877072606846 0.70296509980835253 0.14907535524980631 0.19830036661005523 0.78153251903131493 0.90120359341381118 3.0362611158052433 1.0664395093917849 0.73714813607512009 0.34151677481713716 1.0522870661952763 6.3805390782654277 1.428526597999735 5.8367631909786732 1.2413752254506096 6.7227720314986055 2.8898153286427251 1.8641788905952124 0.2009739616769356 2.8736817046592478 0.049490239005535841 7.2925052818609402 2.3000099314085674 0.40004915304598387 2.3730912673199782 19.968948440422537 1.4829431354592086 1.1567539591342209
leaf_count=3623 26 26 9 35 6 472 18 25 36 17 27 40 37 24 2849 44 2953 16439 7528 18 559 7040 16 25 31 987 44 50732 3375 2939
internal_value=-6.60322e-08 0.0731942 0.0700484 0.0532685 0.0287268 -0.0762647 0.0708234 0.0661737 0.071234 0.0695736 0.0651215 0.0622972 0.0710829 0.0765924 -0.0822341 0.0720001 -0.0757627 -0.07638 -0.076545 0.0711631 -0.0768794 -0.0770299 -0.0318835 0.077141 0.070639 -0.076591 0.0720479 -0.075318 -0.0827485 -0.0757708
internal_weight=81.8642 41.773 21.6921 0.957554 0.254589 40.0912 20.7346 1.68274 19.0519 6.01464 1.52282 1.07866 4.49182 20.0808 3.10977 13.0372 36.9815 15.4854 14.244 7.20045 11.3542 9.9965 0.105513 13.7003 4.16419 7.12282 3.43953 21.4961 2.91147 1.35773
internal_count=100000 504 429 83 48 99496 346 43 303 174 76 67 98 75 6696 129 92800 38445 35492 85 27964 24466 42 51 49 17426 61 54355 6224 3498
is_linear=0
shrinkage=0.05


Tree=5
num_leaves=31
num_cat=0
split_feature=4 5 10 3 6 2 9 2 3 9 6 0 2 11 15 0 18 7 6 7 2 2 7 2 9 7 6 6 11 15
split_gain=167.237 0.21163 0.0261872 0.0183087 0.0381813 0.048762 0.0131468 0.0182842 0.00859251 0.00781057 0.00732392 0.0272565 0.026521 0.00518103 0.00479654 0.00583279 0.00676749 0.00284732 0.00263004 0.00169042 0.0020052 0.00116493 0.000950111 0.00076664 0.000292421 0.000243228 0.000839283 0.000193415 0.000171383 9.22137e-05
threshold=1.0000000180025095e-35 1.0000000180025095e-35 1.0000000180025095e-35 17.000000000000004 0.79285714285714304 25.916666666666668 1.5000000000000002 33.45000000000001 35.000000000000007 1.5000000000000002 0.79285714285714304 2.4433606531460011e-16 30.900000000000002 0.67336111111111119 1.0000000180025095e-35 1.0856612307063e-16 0.080128205128205135 1.5000000000000002 0.47222222222222227 8.5000000000000018 26.633333333333336 29.450000000000003 1.0000000180025095e-35 26.633333333333336 2.5000000000000004 3.5000000000000004 0.74166666666666681 0.94427244582043357 0.45219444444444451 1.0000000180025095e-35
decision_type=2 2 2 2 2 2 2 2 2 2 2 2 2 2 2 2 2 2 2 2 2 2 2 2 2 2 2 2 2 2
left_child=2 3 -1 4 5 -2 7 10 23 17 11 12 -5 -9 24 16 21 22 -19 20 -12 -16 -4 -3 -8 -20 -27 29 -11 -24
right_child=1 8 9 6 -6 -7 14 13 -10 28 19 -13 -14 -15 15 -17 -18 18 25 -21 -22 -23 27 -25 -26 26 -28 -29 -30 -31
leaf_value=-0.071652965312761649 0.026749574658629007 0.073002526770322484 -0.072570247314964795 0.04238981510468276 0.065495193444744193 0.063765922220633528 0.06772028051640068 0.052229479903920198 0.071228551845234342 -0.076140547030460887 0.065809645974917647 0.06693074607447333 0.06511620613972853 0.060587446815201146 0.06757066991637313 0.067869154103006077 0.062608541481301933 -0.076883720810660972 -0.073955841678940357 0.064831881388856191 0.068652084629297241 0.065690865332812889 -0.073110784867268325 0.07371802537481166 0.068469471989912142 -0.07765670030520011 -0.073955571397655184 -0.074134206930018112 -0.077979375666499623 -0.073804758567270159
leaf_weight=27.847919619496679 0.17100111441686994 6.4645993979647782 2.7838058898050786 0.27723357218929123 0.85260890069184825 0.18545766425086185 2.3807115613017205 0.33696514338953409 6.3361098703462622 0.13998221029760216 1.3218406069063355 1.056219396938104 0.23907338277786039 0.412282518169377 1.3772950351703914 3.2323812580434605 1.7279398243408648 1.2171973100048488 2.6826278578373608 1.1581770783814134 1.1693429101724175 2.0521750220796093 1.0500406434293834 8.8953138211509195 2.8757200997206382 0.21039349617785763 0.56318874331191182 1.9390705312835053 1.3368754273105876 0.87972801839350734
leaf_count=68821 38 27 6800 36 21 9 24 24 27 352 34 24 8 24 20 35 32 2571 6505 29 19 27 2559 21 25 477 1523 4525 3271 2092
internal_value=4.4401e-08 0.0693219 -0.0725134 0.0657216 0.0597501 0.0460084 0.0660897 0.0641329 0.0727778 -0.0743851 0.0651809 0.0623284 0.0529132 0.0568286 0.0669459 0.0662039 0.0651602 -0.0739391 -0.074885 0.0664101 0.0671439 0.0664458 -0.0732747 0.0734169 0.0681302 -0.0741811 -0.0749622 -0.0737815 -0.0778051 -0.0734271
internal_weight=83.1733 42.5224 40.6508 20.8264 1.20907 0.356459 19.6174 5.97113 21.696 12.8029 5.22189 1.57253 0.516307 0.749248 13.6462 8.38979 5.15741 11.3261 4.67341 3.64936 2.49118 3.42947 6.65265 15.3599 5.25643 3.45621 0.773582 3.86884 1.47686 1.92977
internal_count=100000 504 99496 429 68 47 361 198 75 30675 150 68 44 48 163 114 79 27052 11076 82 53 47 15976 48 49 8505 2000 9176 3623 4651
is_linear=0
shrinkage=0.05


Tree=6
num_leaves=31
num_cat=0
split_feature=4 5 7 8 9 16 2 8 12 16 12 16 10 16 0 2 7 1 16 1 2 7 3 9 8 1 1 7 16 1
split_gain=153.647 0.377922 0.0293732 0.0195113 0.0156844 0.0140256 0.0136549 0.0118067 0.0155354 0.0177291 0.0109452 0.00705818 0.00643658 0.00605434 0.00389246 0.0026867 0.00249218 0.00220784 0.00167515 0.00148928 0.00110109 0.00092291 0.000542755 0.000107373 7.66989e-05 7.10938e-05 5.26236e-05 9.21506e-05 6.16185e-05 4.66964e-05
threshold=1.0000000180025095e-35 1.0000000180025095e-35 13.500000000000002 1.5000000000000002 1.5000000000000002 64.750000000000014 32.45000000000001 1.5000000000000002 0.27500000000000008 35.150000000000013 0.47500000000000003 80.350000000000009 1.0000000180025095e-35 10.65 1.7645109419261508e-16 26.916666666666668 9.5000000000000018 0.12543706293706297 50.95000000000001 1.0000000180025095e-35 26.916666666666668 1.0000000180025095e-35 27.500000000000004 1.5000000000000002 1.0000000180025095e-35 1.0000000180025095e-35 0.5545004500450047 1.5000000000000002 59.250000000000007 0.77593103448275869
decision_type=2 2 2 2 2 10 2 2 2 10 2 8 2 10 2 2 2 2 10 2 2 2 2 2 2 2 2 2 8 2
left_child=3 2 4 12 6 22 7 13 -9 -10 -8 14 25 -2 16 -13 18 -5 -6 -14 -15 -21 -3 29 -23 -1 27 -26 -28 -19
right_child=1 5 -4 17 11 -7 10 8 9 -11 -12 15 19 20 -16 -17 -18 23 -20 21 -22 24 -24 -25 26 -27 28 -29 -30 -31
leaf_value=-0.068388106709135033 0.057115165960011031 0.070915735835664739 0.052756832951332169 -0.068355884929749589 0.05995981075927475 0.06803153852275276 0.057708297467536099 0.063758104544155966 0.041168159767849113 0.056588508747145029 0.045535087267716268 0.061799231958988149 -0.068262217153108429 0.06100812697639571 0.062478518986797398 0.064254536774102908 0.06204735822763055 -0.072962676368763871 0.057332570572039346 -0.069551637689323348 0.062745190054289635 -0.070848697443824646 0.070341641225304216 -0.074055536507445452 -0.069523218226474934 -0.068701227740710455 -0.070884296066678107 -0.070797690762581841 -0.070395265480490771 -0.073614259092497664
leaf_weight=1.9471566794381967 0.84261835145299002 7.2489267280325356 1.1962512288591813 0.20512585993856136 1.8148588515759891 7.8721222672611466 0.44084547454258416 0.38739210146013625 0.27287877444177866 0.58813947631279007 0.31773852976039052 1.6958366322796798 0.93656043621012841 1.9636286388267765 2.2862660447135568 3.248265195521526 0.95691047189757217 0.39310535602271579 0.91142539825523261 2.547719419555504 1.7039051640313116 3.2135201792116277 9.528697806177659 1.3376608146063516 0.32958173431688953 26.269504794589011 1.1000534373451958 0.24897950232843868 1.5542053061653858 0.91498152841813862
leaf_count=4428 34 17 35 472 36 31 19 7 33 33 27 34 2148 42 32 30 16 867 24 6201 27 7718 27 3375 834 64393 2659 609 3810 1982
internal_value=-4.10098e-08 0.065711 0.060336 -0.0693631 0.0608561 0.0697727 0.0589153 0.0597459 0.0554427 0.0517014 0.0526095 0.0620152 -0.0690649 0.0609371 0.060858 0.0634124 0.059852 -0.0733531 0.0590815 -0.0701597 0.0618152 -0.0703573 0.0705897 -0.0737406 -0.0706757 -0.0686796 -0.0705038 -0.0700717 -0.0705979 -0.0734184
internal_weight=84.2749 43.2767 18.627 40.9982 17.4307 24.6497 6.51715 5.75856 1.24841 0.861018 0.758584 10.9136 38.1473 4.51015 5.96946 4.9441 3.68319 2.85087 2.72628 9.93062 3.66753 8.99406 16.7776 2.64575 6.44634 28.2167 3.23282 0.578561 2.65426 1.30809
internal_count=100000 504 429 99496 394 75 222 176 73 66 46 172 92800 103 108 64 76 6696 60 23979 69 21831 44 6224 15630 68821 7912 1443 6469 2849
is_linear=0
shrinkage=0.05


Tree=7
num_leaves=31
num_cat=0
split_feature=19 10 20 7 20 20 7 7 18 5 0 20 2 20 1 1 14 18 14 7 12 19 9 6 8 7 20 10 15 9
split_gain=115.74 18.8817 2.97281 1.06024 0.945726 1.96636 0.741822 0.738243 0.60562 0.432561 0.275257 0.278219 0.24166 0.0876926 0.0651732 0.213376 0.0722615 0.0462036 0.119452 0.0445947 0.221644 0.0984742 0.026826 0.0431099 0.00958445 0.00653979 0.00496558 0.00374027 0.00316188 0.00123811
threshold=8.5000000000000018 1.0000000180025095e-35 3.9500000000000006 7.5000000000000009 8.6500000000000004 8.9500000000000011 3.5000000000000004 1.5000000000000002 0.080128205128205135 1.0000000180025095e-35 0.89999999999999991 6.4500000000000011 26.291666666666668 14.050000000000002 0.98265895953757243 0.86267025894327209 2.5000000000000004 0.069047619047619066 3.5000000000000004 5.5000000000000009 0.92500000000000016 7.5000000000000009 1.5000000000000002 0.75735294117647067 1.5000000000000002 3.5000000000000004 5.8500000000000005 1.0000000180025095e-35 1.0000000180025095e-35 1.5000000000000002
decision_type=2 2 2 2 2 2 2 2 2 2 2 2 2 2 2 2 2 2 2 2 2 2 2 2 2 2 2 2 2 2
left_child=3 -2 25 10 6 -6 7 -4 17 22 19 -12 -13 -7 15 -9 -16 18 -5 24 -21 -22 23 -8 27 -3 -11 -1 -24 -27
right_child=1 2 4 8 5 13 9 14 -10 26 11 12 -14 -15 16 -17 -18 -19 -20 20 21 -23 28 -25 -26 29 -28 -29 -30 -31
leaf_value=-0.066178648940085794 -0.066174732641176112 -0.069315290344396874 -0.067886447029921623 -0.071532699261041804 0.06609052582482032 -0.068822078014832047 0.045566461591064478 -0.069430045710346916 -0.066348098912709708 0.06694066477120357 -0.068919318607058369 0.05299299195209653 -0.068798042591882713 -0.15071699040977474 0.013354144749779476 0.0569701724525849 0.052150695279520091 0.054971269708427341 0.051711272653567876 -0.067718825447627681 -0.068212797560236529 0.038759670041668609 0.06034220254593621 0.056955158224337166 -0.069876551783299989 -0.077422708975386667 0.068541878533354514 -0.067357433468212838 0.058557534875819231 -0.086027313173850456
leaf_weight=24.941211165045388 3.1361061278439584 0.23074690700741385 0.18404351925710116 0.028444514522560804 0.35658908906043407 0.041873413632856682 1.0036418273812184 0.053514202038058789 0.1937559338985011 6.5310285761952427 0.17674751390586507 0.13964730975567363 0.057500752824125811 0.14901582949096337 0.1431350163766183 0.088775710784830153 0.74327357287984341 0.25488977841450833 0.063668089569546282 0.47276818583486502 0.029155025578802451 0.082086514768889174 3.9146574122423754 4.828885700320825 2.2347788651823057 0.074586813629139215 18.72056177444756 9.2159077688411326 6.7806128373194952 0.09512206501676701
leaf_count=60173 7567 519 428 70 16 97 180 121 470 21 453 14 147 8 118 8 89 34 10 1182 74 33 106 226 5265 131 45 22075 212 108
internal_value=-4.26394e-08 0.0523542 0.0608139 -0.0650463 0.0620612 -0.00324008 0.0628927 0.0243429 0.00446396 0.0640117 -0.0660527 -0.0233673 0.0174711 -0.132753 0.0408436 0.00943197 0.0458859 0.0440033 0.0136533 -0.0664843 -0.0527772 0.0107235 0.0577232 0.0549954 -0.0667042 -0.074795 0.0681277 -0.0664967 0.0592108 -0.0822456
internal_weight=84.9667 47.0762 43.9401 37.8906 43.5396 0.547478 42.9921 1.21274 0.540758 41.7794 37.3498 0.373896 0.197148 0.190889 1.0287 0.14229 0.886409 0.347002 0.0921126 36.9759 0.58401 0.111242 16.5278 5.83253 36.3919 0.400456 25.2516 34.1571 10.6953 0.169709
internal_count=100000 10000 2433 90000 1675 121 1554 764 584 790 89416 614 161 105 336 129 207 114 80 88802 1289 107 724 406 87513 758 66 82248 318 239
is_linear=0
shrinkage=0.05


Tree=8
num_leaves=31
num_cat=0
split_feature=4 5 20 20 6 2 16 9 6 16 8 20 16 16 6 10 20 8 1 1 16 2 6 20 7 1 9 6 3 6
split_gain=138.869 0.369444 0.0478023 0.0355391 0.0691916 0.0748887 0.219777 0.022773 0.0221657 0.0260715 0.0130903 0.00662177 0.00564734 0.00553564 0.0160227 0.00468974 0.00362315 0.00271358 0.00172213 0.00141784 0.00135532 0.000971342 0.000799197 0.001475 0.000791817 0.000182352 0.000155755 0.00014381 8.46037e-05 7.42264e-05
threshold=1.0000000180025095e-35 1.0000000180025095e-35 4.1500000000000012 4.0500000000000007 0.30952380952380959 17.414285714285715 12.65 1.5000000000000002 0.79285714285714304 80.350000000000009 1.5000000000000002 6.5500000000000007 80.350000000000009 80.350000000000009 0.90454545454545465 1.0000000180025095e-35 6.0500000000000007 1.0000000180025095e-35 0.12543706293706297 1.0000000180025095e-35 25.450000000000003 28.916666666666668 0.47222222222222227 5.1500000000000012 1.0000000180025095e-35 1.0000000180025095e-35 1.5000000000000002 0.47222222222222227 30.500000000000004 0.18333333333333338
decision_type=2 2 2 2 2 2 8 2 2 8 2 2 8 8 2 2 2 2 2 2 10 2 2 2 2 2 2 2 2 2
left_child=10 2 3 4 -2 -6 -7 8 9 11 15 -4 20 17 -15 25 -3 -10 -12 -17 -9 -14 -22 -24 -21 -1 29 -26 -18 -20
right_child=1 16 7 -5 5 6 -8 12 13 -11 18 -13 21 14 -16 19 28 -19 26 24 22 -23 23 -25 27 -27 -28 -29 -30 -31
leaf_value=-0.06414504330206218 0.050953335736752252 0.064973100060383968 0.049059639914569443 0.056889348110318795 0.05545268531214264 0.051006180506618086 -0.085551306156847487 0.058835863237601455 0.058314307038820526 0.036216385720419714 -0.064113232580646648 0.056986971423044291 0.058864364760069315 0.058898623412148889 0.048092397369259333 -0.064034120255256052 0.066324063774321623 0.055479149976536295 -0.068100629309517588 -0.065311750102636443 0.057735765842539456 0.060342694843339317 0.057859812647381242 0.055382732113207406 -0.065959153987261862 -0.06463902121708065 -0.069194287979468902 -0.066487672146842786 0.066102630954737493 -0.068874339723207154
leaf_weight=2.0071600298688308 0.28860325220739724 8.5359842490870523 0.56429585249861924 0.34305539156775922 0.063400870538316667 0.063996959012001753 0.054602896998403594 1.3689104542136163 2.2617528717964892 0.30727778194705035 0.2106834400328802 0.49407127581071109 1.8214910227106891 0.68984940764494218 0.68229740118840709 0.96453623485285689 10.001612245920116 1.346371656632982 0.75078724438208178 2.5964261615881679 2.2185660536633804 2.8492085933685303 1.0393778532743456 1.4247799064614808 1.7658237059658857 26.995076085993787 1.320419749303255 4.7474557728855871 7.5850598991382858 0.52797670205472969
leaf_count=4428 15 27 36 7 3 3 55 17 37 35 472 15 25 13 30 2148 26 36 1631 6201 32 26 14 30 4219 64393 3375 11411 22 1218
internal_value=-2.96114e-08 0.0620278 0.0564905 0.0446503 0.0357284 0.0115859 -0.0118643 0.057055 0.054681 0.0490378 -0.0651647 0.0527603 0.05846 0.0562284 0.0535252 -0.0649277 0.0658183 0.0572564 -0.068461 -0.0658571 0.0574519 0.0597662 0.0570474 0.0564276 -0.0660501 -0.0646048 -0.0688134 -0.0663444 0.0662286 -0.0684201
internal_weight=85.8909 44.0046 17.8819 0.813659 0.470604 0.182001 0.1186 17.0683 6.34592 1.36564 41.8863 1.05837 10.7223 4.98027 1.37215 39.0765 26.1227 3.60812 2.80987 10.0742 6.05163 4.6707 4.68272 2.46416 9.10971 29.0022 2.59918 6.51328 17.5867 1.27876
internal_count=100000 504 429 83 76 61 58 346 202 86 99496 51 144 116 43 92800 75 73 6696 23979 93 51 76 44 21831 68821 6224 15630 48 2849
is_linear=0
shrinkage=0.05


Tree=9
num_leaves=31
num_cat=0
split_feature=4 5 20 20 6 2 16 11 9 2 6 6 10 16 20 3 16 16 9 3 1 0 20 1 9 6 1 19 19 16
split_gain=131.326 0.365177 0.029079 0.0361626 0.0426423 0.0367419 0.051438 0.165247 0.0212332 0.0179394 0.0124535 0.0202995 0.00869186 0.00815743 0.00538069 0.00490025 0.00532303 0.00476516 0.00263282 0.00170725 0.00152741 0.00100741 0.000834098 0.000790744 0.000524846 0.000533318 0.000136648 9.58981e-05 9.28904e-05 8.32976e-05
threshold=1.0000000180025095e-35 1.0000000180025095e-35 4.2500000000000009 4.0500000000000007 0.18333333333333338 17.414285714285715 12.65 0.78288888888888908 1.5000000000000002 32.45000000000001 0.79285714285714304 0.62019230769230782 1.0000000180025095e-35 46.650000000000013 6.0500000000000007 23.000000000000004 80.350000000000009 80.350000000000009 1.5000000000000002 30.500000000000004 1.0000000180025095e-35 1.7645109419261508e-16 5.7500000000000009 1.0000000180025095e-35 1.0000000180025095e-35 0.18333333333333338 1.0000000180025095e-35 8.5000000000000018 8.5000000000000018 58.350000000000001
decision_type=2 2 2 2 2 2 8 2 2 2 2 2 2 8 2 2 8 8 2 2 2 2 2 2 2 2 2 2 2 10
left_child=12 2 3 4 -2 -6 -7 -8 9 10 11 -4 26 -11 -3 -10 21 19 20 -12 -14 22 -17 -20 25 -22 -1 -26 -25 -16
right_child=1 14 8 -5 5 6 7 -9 15 13 17 -13 18 -15 29 16 -18 -19 23 -21 24 -23 -24 28 27 -27 -28 -29 -30 -31
leaf_value=-0.062471733736437052 0.052635681309371775 0.062929590243507139 0.053838375343247882 0.053695222814111015 0.053220571603213342 0.047269379500562668 -0.081846200710758613 0.04088253439182038 0.054004277692277537 0.050708344315109982 0.057249849924449869 0.039983699401515048 -0.06237663012588212 0.039694726684688986 0.064575226189257207 0.056265465965440235 0.058387946001222969 0.052539395735955466 -0.062391928708992676 0.05487563369615505 -0.06368579135898661 0.056905762506782989 0.054604668404711731 -0.06667174793898871 -0.064848416230377112 -0.064537507337706343 -0.062898274635625723 -0.065980565759741081 -0.068085245938005426 0.064359577858022682
leaf_weight=2.0175434466509641 0.20274997048545873 8.2063461948419008 0.83112211653497314 0.79176779638510197 0.06554382829926908 0.058414259692654014 0.047211806668201461 0.065449584973976016 1.5018258407944802 0.33901382208568964 1.7282461201539265 0.38771670678397641 1.0658783792459861 0.33353288361104205 9.5912943605799246 1.4452709220349764 4.2014665156602868 1.2412164291017687 0.10972211620537464 1.3475764254108069 3.4594128900207561 1.7415678352117536 1.5852024266496298 1.1723106008721513 2.7776449967059311 3.9213420684973244 27.087256235361565 0.2005480387888382 0.12902269614278328 8.3995035812258703
leaf_count=4428 7 27 34 19 3 3 54 9 35 15 26 32 2361 27 23 19 39 35 243 25 8171 21 26 3046 6688 9342 64393 490 334 25
internal_value=-8.23034e-09 0.0602285 0.0547273 0.0473117 0.0358081 0.0213893 0.00919385 -0.0105481 0.0552745 0.0529575 0.0538943 0.0494312 -0.0633467 0.0452464 0.0639906 0.0566477 0.0570901 0.0551544 -0.0644306 0.0562097 -0.0641789 0.0559475 0.0553967 -0.0664682 -0.0643644 -0.0641383 -0.0628687 -0.0649247 -0.0668119 0.0644745
internal_weight=86.0527 44.112 17.9149 1.23114 0.439369 0.236619 0.171076 0.112661 16.6838 6.20842 5.53588 1.21884 41.9407 0.672547 26.1971 10.4753 8.97351 4.31704 12.8359 3.07582 11.4248 4.77204 3.03047 1.41106 10.3589 7.38075 29.1048 2.97819 1.30133 17.9908
internal_count=100000 504 429 95 76 69 66 63 334 194 152 66 99496 42 75 140 105 86 30675 51 27052 66 45 3623 24691 17513 68821 7178 3380 48
is_linear=0
shrinkage=0.05


Tree=10
num_leaves=31
num_cat=0
split_feature=19 10 20 7 7 7 18 5 1 0 14 20 14 13 18 14 9 6 0 15 7 12 19 3 3 2 20 8 15 10
split_gain=101.354 16.5033 2.10046 0.848757 0.816911 0.645875 0.507495 0.392637 0.253377 0.066487 0.181341 0.0816378 0.041225 0.155715 0.0331801 0.097393 0.0328488 0.0465381 0.27286 0.0239568 0.0211737 0.126337 0.0667821 0.0177059 0.0240576 0.0116232 0.00613018 0.00506668 0.0030268 0.00227752
threshold=8.5000000000000018 1.0000000180025095e-35 3.9500000000000006 7.5000000000000009 3.5000000000000004 1.5000000000000002 0.080128205128205135 1.0000000180025095e-35 0.86267025894327209 0.89999999999999991 3.5000000000000004 6.4500000000000011 2.5000000000000004 0.35000000000000003 0.069047619047619066 3.5000000000000004 1.5000000000000002 0.75735294117647067 2.4433606531460011e-16 1.0000000180025095e-35 5.5000000000000009 0.92500000000000016 7.5000000000000009 20.500000000000004 17.000000000000004 32.45000000000001 6.0500000000000007 1.5000000000000002 1.0000000180025095e-35 1.0000000180025095e-35
decision_type=2 2 2 2 2 2 2 2 2 2 2 2 2 2 2 2 2 2 2 2 2 2 2 2 2 2 2 2 2 2
left_child=3 -2 -3 9 5 -4 14 16 -7 20 -11 -12 13 -10 15 -5 17 18 -6 -14 27 -22 -23 24 -18 -19 -9 29 -25 -1
right_child=1 2 4 6 7 8 -8 26 12 10 11 -13 19 -15 -16 -17 23 25 -20 -21 21 22 -24 28 -26 -27 -28 -29 -30 -31
leaf_value=-0.061380033611520092 -0.061377053394772577 -0.065744147211093742 -0.062645420966194312 -0.064951353810649592 -0.023240119069604617 -0.063971391598048669 -0.061485097455738519 0.061324094646353688 0.042889287207257099 -0.064230845513703755 -0.063796344010384906 0.044362138898342063 0.029093005154134821 -0.066860063597763836 0.049344171589466308 0.046902854651121775 0.035508323628383937 0.052378251961697243 0.051355741544336433 0.051173315238121658 -0.062648412788030669 -0.062925893538234801 0.027856597583348242 0.05600809575627156 0.053071249615437036 0.044608205974833184 0.062974704613918076 -0.064106034874414367 0.054215638064039333 -0.062295880457299724
leaf_weight=25.464258220832562 3.1796404462656929 0.34844808935304072 0.21201621863292419 0.027440762147306397 0.14653331282898108 0.062041977798799053 0.19759114278713241 8.1907969638705271 0.15737629059003666 0.21064144987030786 0.022895300178788602 0.073309824743773788 0.15873808870674111 0.040672348055522889 0.24130456222337671 0.066921242832904682 0.28303612695890379 4.4502542315167375 0.75019982174853794 0.5432950007962063 0.47368183030630362 0.029086570459185168 0.066741681337589398 3.7837817471590807 0.62675625275005586 0.53966913072508749 17.956895386567339 2.1858789485413572 6.2379751160915475 9.25554763531545
leaf_count=60173 7567 758 495 70 120 143 470 25 43 542 59 13 43 93 34 10 43 177 65 51 1182 74 33 82 22 51 48 5265 174 22075
internal_value=3.82233e-08 0.0486694 0.0565346 -0.0605496 0.0574999 0.0163524 0.00209007 0.0586243 0.0337606 -0.0614337 -0.0382541 0.0186221 0.0404972 0.0203506 0.0395138 0.0143753 0.0526645 0.0496533 0.0391662 0.0461807 -0.0616235 -0.0520562 0.000301557 0.0542861 0.0476074 0.0515379 0.0624576 -0.0617712 0.0548924 -0.0616242
internal_weight=85.9834 47.6681 44.4885 38.3153 44.14 1.17414 0.533258 42.9659 0.962124 37.782 0.306847 0.0962051 0.900082 0.198049 0.335667 0.094362 16.8182 5.88666 0.896733 0.702033 37.4752 0.56951 0.0958283 10.9315 0.909792 4.98992 26.1477 36.9057 10.0218 34.7198
internal_count=100000 10000 2433 90000 1675 868 584 807 373 89416 614 72 230 136 114 80 734 413 185 94 88802 1289 107 321 65 228 73 87513 256 82248
is_linear=0
shrinkage=0.05


Tree=11
num_leaves=31
num_cat=0
split_feature=4 5 9 6 7 3 11 20 15 20 20 7 8 20 16 11 10 11 16 6 11 1 11 1 7 19 16 20 1 6
split_gain=118.941 0.357762 0.0231568 0.0199674 0.0226557 0.0377903 0.0386184 0.00956644 0.00909534 0.00872493 0.008646 0.00672656 0.00588032 0.00487207 0.00484911 0.00416633 0.0020174 0.00176841 0.00142948 0.00112205 0.00106295 0.00079385 0.00067035 0.000629266 0.000358875 0.000328564 0.000253464 0.000159579 7.99382e-05 7.13903e-05
threshold=1.0000000180025095e-35 1.0000000180025095e-35 1.5000000000000002 0.79285714285714304 5.5000000000000009 43.500000000000007 0.55697222222222231 4.3500000000000005 1.0000000180025095e-35 6.2500000000000009 6.0500000000000007 4.5000000000000009 1.5000000000000002 4.1500000000000012 80.350000000000009 0.64752777777777792 1.0000000180025095e-35 0.69919444444444456 29.250000000000004 0.47222222222222227 0.72708333333333341 0.12543706293706297 0.65447222222222234 1.0000000180025095e-35 1.0000000180025095e-35 8.5000000000000018 58.350000000000001 3.9500000000000006 1.0000000180025095e-35 0.47222222222222227
decision_type=2 2 2 2 2 2 2 2 2 2 2 2 2 2 8 2 2 2 10 2 2 2 2 2 2 2 10 2 2 2
left_child=12 2 3 4 9 6 -6 13 -5 11 -3 -2 16 17 18 -10 28 -4 -9 -20 -17 -14 -16 -18 -25 -23 -12 -27 -1 -26
right_child=1 10 7 8 5 -7 -8 14 15 -11 26 -13 21 -15 22 20 23 -19 19 -21 -22 25 -24 24 29 27 -28 -29 -30 -31
leaf_value=-0.059795921723984402 0.037741587379740343 0.059709855771509016 0.042648172084897296 0.046313339129545002 0.045028553319303354 0.05260674656810304 -0.0022974876672486109 0.053817875699107565 0.049194050003474078 0.052312150121580574 0.061853369816991036 0.04901095189024697 -0.059758830283174996 0.051932702070756037 0.055649217873310543 0.053619309579638355 -0.059712813775843171 0.048314473331309719 0.053139885416678981 0.051334008361435139 0.051810349186142718 -0.062762506425769984 0.054427271251719291 -0.060556440329219655 -0.060981632396579222 -0.06273823794736004 0.06147776962770235 -0.065504236778224062 -0.060122332311543486 -0.061356421889454116
leaf_weight=2.0156755255302441 0.27570661861682555 8.0514524711761641 0.26216866137110517 0.88422904053004447 0.073349302809219696 0.1309595494531095 0.10454320877033751 2.1013350654393408 1.0859748671064151 0.51017218537162989 9.7207960963714886 0.25477559823775664 0.21107564005069379 0.68663829402066767 2.0959103506756955 1.7292266529984774 0.96810270819696498 0.29002295201644301 1.5929941383656117 1.8697420556563882 1.5310958498157559 2.2847261748684109 2.416331805055961 2.5809728529711702 1.7448005632613783 0.074416606279555597 8.349744789535178 0.17423089614021592 27.012507470411947 4.6749411562632304
leaf_count=4428 32 27 27 37 6 5 36 27 30 17 23 13 472 11 21 30 2148 17 23 35 35 5628 27 6201 4219 185 25 411 64393 11411
internal_value=2.36975e-08 0.0573417 0.0518955 0.0495369 0.0441143 0.0322225 0.0172162 0.0532671 0.0509359 0.0476437 0.0610726 0.0431539 -0.0604678 0.0491208 0.0537768 0.0518764 -0.0603104 0.0456242 0.0527891 0.0521648 0.0527698 -0.0627049 0.0549949 -0.0609241 -0.0610544 -0.0629504 0.0616798 -0.0646764 -0.0600997 -0.0612546
internal_weight=85.7586 44.0172 17.8952 6.58003 1.34951 0.308852 0.177893 11.3151 5.23053 1.04065 26.122 0.530482 41.7414 1.23883 10.0763 4.3463 38.997 0.552192 5.56407 3.46274 3.26032 2.74445 4.51224 9.96882 9.00071 2.53337 18.0705 0.248648 29.0282 6.41974
internal_count=100000 504 429 241 109 47 42 188 132 62 75 45 99496 55 133 95 92800 44 85 58 65 6696 48 23979 21831 6224 48 596 68821 15630
is_linear=0
shrinkage=0.05


Tree=12
num_leaves=31
num_cat=0
split_feature=4 6 16 18 0 3 16 3 8 3 2 3 0 18 2 8 8 0 6 10 1 12 1 6 19 1 8 19 2 1
split_gain=113.499 0.0889944 0.0257523 0.0320316 0.0208422 0.0174026 0.0190271 0.0167089 0.0151993 0.0241013 0.0150052 0.0126068 0.0108038 0.00946279 0.00910836 0.00442842 0.00426753 0.00485397 0.00384714 0.0015353 0.000603309 0.00059828 0.000480297 0.000269938 0.000241901 6.08365e-05 5.72518e-05 4.73214e-05 2.55204e-05 2.14115e-05
threshold=1.0000000180025095e-35 0.57738095238095244 36.650000000000013 1.0000000180025095e-35 -9.3614053456271997e-17 24.500000000000004 58.350000000000001 27.500000000000004 3.5000000000000004 37.500000000000007 28.291666666666668 21.500000000000004 8.7130056083902428e-17 0.11437908496732027 33.900000000000006 1.5000000000000002 3.5000000000000004 1.0856612307063e-16 0.35416666666666669 1.0000000180025095e-35 0.12543706293706297 0.47500000000000003 1.0000000180025095e-35 0.47222222222222227 8.5000000000000018 1.0000000180025095e-35 1.0000000180025095e-35 8.5000000000000018 21.062500000000004 0.5545004500450047
decision_type=2 2 10 2 2 2 8 2 2 2 2 2 2 2 2 2 2 2 2 2 2 2 2 2 2 2 2 2 2 2
left_child=15 5 3 7 -5 6 -2 -3 9 10 11 -4 13 -6 -11 19 17 -7 21 25 -17 -18 -21 26 -22 -1 -24 -25 -26 -28
right_child=1 2 8 4 12 16 -8 -9 -10 14 -12 -13 -14 -15 -16 20 18 -19 -20 22 24 -23 23 27 28 -27 29 -29 -30 -31
leaf_value=-0.058717679642207893 0.050945112439912225 0.044362844061369727 0.058184657811431464 0.059627140542458427 0.050921129582365401 0.048266342708199302 0.039257076742925723 0.053080717525004734 0.059623729781594872 0.050112377148470194 0.060185896568094858 0.052857220324429646 0.056943963892647068 0.056202226936882406 0.055976598204871719 -0.058683649835662793 0.051188884692960325 0.053231145008899985 0.054826688746125077 -0.058644388650815553 -0.06131191054014748 0.052698947604787987 -0.059383872607711496 -0.060043906802229853 -0.061900452465267132 -0.059003149414212121 -0.059394246060049255 -0.060719978403159007 -0.063212568309151881 -0.059841479982689141
leaf_weight=2.0056581320532159 0.90382302628131372 0.79068897955585216 2.9795360442949477 3.7448756230296523 2.1024767050403201 1.094802330015227 0.56641073361970495 1.8027588826953431 10.064823083928784 1.445992318214848 4.6911214952706359 1.7702472476812543 3.6081251291907392 1.4218612411059437 1.2215176698518915 0.21002553089056109 1.2634950720821509 0.89456714579137031 2.1448191812378354 0.96344268863322113 2.2573095546686095 1.3640569321578366 2.564062515186377 4.3607348313380498 0.045547678309958317 26.862376225093612 0.33083902593352821 0.27516069434932422 0.19882268537185155 1.4004829140030777
leaf_count=4428 25 30 27 17 37 35 35 34 34 27 19 34 36 13 21 472 21 14 26 2148 5628 19 6201 10724 112 64393 834 687 484 3385
internal_value=-1.06058e-08 0.0560582 0.0571404 0.0554161 0.0566066 0.0513724 0.0464423 0.0504228 0.0581879 0.0569944 0.0581801 0.0561991 0.0550207 0.0530517 0.0527977 -0.0593042 0.0524444 0.0504989 0.0532554 -0.0591675 -0.0612576 0.0519728 -0.059705 -0.0598194 -0.0614737 -0.0589833 -0.0595339 -0.060084 -0.062968 -0.059756
internal_weight=85.3505 43.876 35.644 13.4708 10.8773 8.23197 1.47023 2.59345 22.1732 12.1084 9.4409 4.74978 7.13246 3.52434 2.66751 41.4745 6.76174 1.98937 4.77237 38.7628 2.71171 2.62755 9.89472 8.93128 2.50168 28.868 4.29538 4.6359 0.24437 1.73132
internal_count=100000 504 329 167 103 175 60 64 162 128 80 61 86 50 48 99496 115 49 66 92800 6696 40 23979 21831 6224 68821 10420 11411 596 4219
is_linear=0
shrinkage=0.05


Tree=13
num_leaves=31
num_cat=0
split_feature=19 10 20 5 7 7 11 18 17 14 9 6 2 3 2 11 18 18 7 11 11 20 11 10 7 8 20 7 1 1
split_gain=88.1305 14.3163 1.87186 0.79946 0.796076 0.689949 0.516349 0.421163 0.0706819 0.126669 0.0471712 0.0617752 0.118757 0.0289675 0.0245217 0.0238706 0.0236974 0.0841058 0.0190043 0.104799 0.0975248 0.00634234 0.00375603 0.00229444 0.00209185 0.00102994 0.000412413 0.000393712 0.0003544 0.000337492
threshold=8.5000000000000018 1.0000000180025095e-35 3.9500000000000006 1.0000000180025095e-35 2.5000000000000004 7.5000000000000009 0.71450000000000014 0.080128205128205135 1.0000000180025095e-35 3.5000000000000004 1.5000000000000002 0.75735294117647067 27.450000000000003 18.500000000000004 25.267857142857146 0.59725000000000017 0.069047619047619066 0.060661764705882359 5.5000000000000009 0.69097222222222232 0.69513888888888908 6.1500000000000012 0.58313888888888898 1.0000000180025095e-35 4.5000000000000009 1.5000000000000002 6.9500000000000011 9.5000000000000018 0.12543706293706297 1.0000000180025095e-35
decision_type=2 2 2 2 2 2 2 2 2 2 2 2 2 2 2 2 2 2 2 2 2 2 2 2 2 2 2 2 2 2
left_child=5 -2 24 4 6 8 -4 16 18 -10 11 12 -6 14 -12 -13 17 -7 23 -20 -21 -5 -15 -1 -3 29 -23 -26 -27 -25
right_child=1 2 3 21 10 7 -8 -9 9 -11 13 15 -14 22 -16 -17 -18 -19 19 20 -22 26 -24 25 27 28 -28 -29 -30 -31
leaf_value=-0.05800494359381269 -0.058002480902129588 -0.059703255564497931 -0.059733273744975737 0.05808491404044195 0.040861584216850849 -0.060917555213236524 0.042861637213391375 -0.058073844914750816 -0.059753337000209378 0.023477093217175393 0.029131210525647662 0.037361780263615384 -0.0018552284975651241 0.046726564070814457 0.047741781138644836 0.047392066613865413 0.043851076783417743 0.043514614803551815 -0.058832286422815273 0.040375238380384475 -0.060098872211195344 0.060020134920875823 0.050284192335975621 -0.057706111843391854 -0.066816747808887897 -0.057715478508711962 0.05954029353264674 -0.075311017260664262 -0.060038379431649705 -0.058731655665431939
leaf_weight=25.018304080760572 3.1242813759308765 0.24434229350299475 0.29115462765912781 8.1160863265395182 0.88793753180653101 0.026811406132764115 0.21189379139104858 0.19405502857989632 0.11912861641030659 0.07417802739655599 0.31417167323524964 0.6799156238848808 0.19920889518107288 0.8063567893113931 0.40538996580289677 4.6490881351346616 0.22804764565080404 0.068630210065748543 0.47655808797571708 0.05690793544636108 0.041958940302720293 8.5646971464157122 9.2819036999426299 0.88911945751169597 0.090600832656491548 0.17903714042040442 9.3844232845585775 0.016059746354585513 1.9813367062597536 8.2081737886182946
leaf_count=60173 7567 574 688 26 124 68 30 470 318 42 41 82 144 67 24 178 34 12 1206 14 111 18 224 2002 168 407 29 16 4950 20193
internal_value=-2.19051e-08 0.0454311 0.0527517 0.0536735 0.0454816 -0.0571695 -0.0165183 0.000161812 -0.0579705 -0.0278151 0.0472924 0.0438964 0.0330341 0.0493085 0.0396161 0.0461123 0.0350963 0.0141776 -0.0581287 -0.0491133 -0.00226581 0.0592448 0.0499998 -0.0582717 -0.0622535 -0.0588645 0.0597693 -0.0680957 -0.0598459 -0.0586314
internal_weight=84.8298 47.2675 44.1432 43.7922 17.727 37.5622 0.503048 0.517544 37.0447 0.193307 17.224 6.41615 1.08715 10.8078 0.719562 5.329 0.323489 0.0954416 36.8514 0.575425 0.0988669 26.0652 10.0883 36.276 0.351003 11.2577 17.9491 0.106661 2.16037 9.09729
internal_count=100000 10000 2433 1675 1602 90000 718 584 89416 360 884 528 268 356 65 260 114 80 89056 1331 125 73 291 87725 758 27552 47 184 5357 22195
is_linear=0
shrinkage=0.05


Tree=14
num_leaves=31
num_cat=0
split_feature=19 10 20 5 7 7 11 18 16 9 11 16 6 3 2 18 16 7 12 11 20 16 8 7 10 16 1 7 1 8
split_gain=84.5691 13.7233 1.74401 0.831011 0.757927 0.641481 0.479083 0.396816 0.185414 0.0490659 0.0708508 0.0525517 0.0386317 0.027895 0.0294742 0.0219856 0.0919824 0.0187271 0.105123 0.0955011 0.00817408 0.00559912 0.00182288 0.00141898 0.000808398 0.000637343 0.000276851 0.000261286 0.000260074 0.000216071
threshold=8.5000000000000018 1.0000000180025095e-35 3.9500000000000006 1.0000000180025095e-35 2.5000000000000004 7.5000000000000009 0.71450000000000014 0.080128205128205135 74.850000000000009 1.5000000000000002 0.60175000000000012 36.45000000000001 0.75735294117647067 20.500000000000004 24.845238095238098 0.069047619047619066 74.850000000000009 5.5000000000000009 0.92500000000000016 0.69097222222222232 6.1500000000000012 80.350000000000009 1.5000000000000002 4.5000000000000009 1.0000000180025095e-35 58.350000000000001 0.12543706293706297 9.5000000000000018 1.0000000180025095e-35 2.5000000000000004
decision_type=2 2 2 2 2 2 2 2 10 2 2 10 2 2 2 2 10 2 2 2 2 8 2 2 2 10 2 2 2 2
left_child=5 -2 23 4 6 8 -4 15 17 10 11 -6 -12 14 -11 16 -7 22 -19 -20 -5 -15 24 -3 -1 -22 -24 29 -26 -25
right_child=1 2 3 20 9 7 -8 -9 -10 13 12 -13 -14 21 -16 -17 -18 18 19 -21 25 -23 26 27 28 -27 -28 -29 -30 -31
leaf_value=-0.057158159082246522 -0.057155872970197953 -0.058610037538317034 -0.058568839738972978 0.057027305876641947 0.010375319748537181 -0.059619563425477688 0.041130962845750366 -0.057218395970735005 0.028649028322754972 0.026791972351671245 0.034807816088043696 0.037523982138126133 0.046375553351123443 0.047804276108306426 0.046143636552681562 0.04244365709599638 0.047019129589288201 -0.057939824391419363 -0.058404324820290378 0.041056817286949293 0.059238523583929975 0.050197347927560303 -0.056902159527247781 -0.061824501946077415 -0.056894939009745141 0.058642369105368478 -0.058962300151403038 -0.071871529553339072 -0.057798168324729719 -0.066850349717851046
leaf_weight=24.783541478129337 3.0949471835338036 0.24071985943009977 0.28701813810039567 7.8630201891064671 0.26128557760967197 0.029452312679494663 0.20767893543234095 0.19221024218131788 0.062925774574977278 0.29753895057365198 0.85127331991679955 0.56089516001520678 4.7435953528911341 5.4009604098100654 0.58094688056735322 0.22232122367131524 0.06452054571127519 0.48501253762515162 0.04205779597396031 0.056633694504853338 9.5819513893220591 4.4649120457179388 0.17747523551224675 0.038365590909961611 0.88305347433197212 8.4254272207617742 2.0100796537590213 0.014527923776768148 8.1752109443186765 0.048318963381461799
leaf_count=60173 7567 574 688 26 121 76 30 470 27 44 164 67 176 173 33 34 4 1250 105 11 22 106 407 87 2006 25 5089 16 20348 81
internal_value=5.1513e-09 0.0446021 0.0517812 0.0526648 0.0443021 -0.0563317 -0.0167138 -0.000558638 -0.057105 0.0460609 0.0426015 0.0288963 0.0446155 0.0481271 0.0395893 0.0338732 0.0135972 -0.0572524 -0.0483682 -0.00132897 0.0583723 0.0488873 -0.0573963 -0.0606986 -0.0573059 0.0589596 -0.0587952 -0.065666 -0.0577101 -0.064626
internal_weight=84.1479 46.9634 43.8684 43.5265 17.6561 37.1845 0.494697 0.508504 36.676 17.1614 6.41705 0.822181 5.59487 10.7444 0.878486 0.316294 0.0939729 36.6131 0.583704 0.0986915 25.8704 9.86587 36.0294 0.341932 33.8418 18.0074 2.18755 0.101212 9.05826 0.0866846
internal_count=100000 10000 2433 1675 1602 90000 718 584 89416 884 528 188 340 356 77 114 80 89389 1366 116 73 279 88023 758 82527 47 5496 184 22354 168
is_linear=0
shrinkage=0.05


Tree=15
num_leaves=31
num_cat=0
split_feature=19 7 20 20 5 11 7 16 18 9 16 9 11 11 3 7 12 11 18 16 11 20 7 9 11 1 6 7 20 14
split_gain=81.2499 7.38882 3.34963 2.68503 1.13745 1.11314 0.597943 0.470163 0.375565 0.229243 0.182559 0.106347 0.215543 0.0733383 0.0334471 0.0195517 0.105541 0.0926384 0.019149 0.0871714 0.0136841 0.00835899 0.00137056 0.000920349 0.000358949 0.000293132 0.000275136 0.000260217 0.000159248 0.000124953
threshold=8.5000000000000018 1.5000000000000002 8.9500000000000011 3.9500000000000006 1.0000000180025095e-35 0.53613888888888905 7.5000000000000009 36.45000000000001 0.080128205128205135 2.5000000000000004 74.850000000000009 1.5000000000000002 0.59425000000000006 0.43158333333333343 19.500000000000004 5.5000000000000009 0.92500000000000016 0.69097222222222232 0.069047619047619066 74.850000000000009 0.73463888888888895 6.4500000000000011 1.5000000000000002 1.5000000000000002 0.68697222222222243 1.0000000180025095e-35 0.47222222222222227 3.5000000000000004 3.2500000000000004 2.5000000000000004
decision_type=2 2 2 2 2 2 2 10 2 2 10 2 2 2 2 2 2 2 2 10 2 2 2 2 2 2 2 2 2 2
left_child=6 -2 3 23 5 7 10 9 18 -5 15 12 -7 -9 -13 22 -17 -18 19 -8 -4 -6 -1 24 -3 -24 -27 -25 -29 -26
right_child=1 2 20 4 21 11 8 13 -10 -11 -12 14 -14 -15 -16 16 17 -19 -20 -21 -22 -23 25 27 29 26 -28 28 -30 -31
leaf_value=-0.056496130759873024 -0.056516047049780228 -0.056849918282508717 -0.056462912678574118 -0.057827080466274994 0.056542909751193408 0.0075739039690226944 -0.058522685263520641 -0.057055957021813132 -0.056468189710235775 0.044303874239246192 0.028800625865668811 0.037178994669900801 0.04177498710447719 0.034384823062618045 0.048077626213570181 -0.05710060153899487 -0.057516519320206953 0.040278175236968396 0.040551593068933869 0.045847444810144918 -0.086253277159497432 0.05843277712464854 -0.056175555519874271 -0.057632952428809697 -0.058201450962091887 -0.057976750414579184 -0.057190862680703836 -0.060848589105656083 -0.066402498510956004 -0.063376915081890153
leaf_weight=30.468231555569218 1.7641937889857207 0.44545698864385386 0.69332724355626751 0.44071000872645782 9.0739316269755381 0.49842619348783301 0.028987628145840882 0.023375288030365482 0.19202425278490409 0.062769810319878161 0.062869749614036574 0.75876955542480473 6.082293893356109 0.35405699370312504 9.7475300824735296 0.47850323157035646 0.041553638002369553 0.058038609946379438 0.21800553958746605 0.064568663539830595 0.04081778964609839 16.473184555768967 0.46115285198902611 0.016655397048452869 0.019122229627100751 1.8234153241210149 2.8613196313672233 0.018658769724424928 0.041867667809128761 0.029894854436861351
leaf_count=74911 4370 1070 1740 1036 31 356 76 56 470 5 27 66 605 94 262 1250 105 11 34 4 17 37 1060 44 47 4672 7380 42 66 56
internal_value=5.4862e-08 0.0438533 0.0478039 0.0495678 0.0509821 0.041343 -0.0555761 -0.0134673 -0.00146731 -0.0450942 -0.0563277 0.0441687 0.0391846 0.0287217 0.0472905 -0.0564755 -0.047354 -0.000525456 0.0324313 0.0135092 -0.0581192 0.0577615 -0.0566236 -0.0580894 -0.0572968 -0.0573783 -0.0574967 -0.0631674 -0.0646904 -0.0613579
internal_weight=83.3437 46.585 44.8208 44.0867 43.515 17.9679 36.7587 0.880912 0.503586 0.50348 36.2551 17.087 6.58072 0.377432 10.5063 36.1922 0.578095 0.0995922 0.311562 0.0935563 0.734145 25.5471 35.6141 0.571656 0.494474 5.14589 4.68473 0.0771818 0.0605264 0.0490171
internal_count=100000 10000 5630 3873 2548 2480 90000 1191 584 1041 89416 1289 961 150 328 89389 1366 116 114 80 1757 68 88023 1325 1173 13112 12052 152 108 103
is_linear=0
shrinkage=0.05


Tree=16
num_leaves=31
num_cat=0
split_feature=4 5 9 11 16 3 20 2 16 18 9 2 20 16 0 13 20 9 20 19 7 16 20 20 18 7 1 19 11 20
split_gain=96.456 0.543557 0.0279373 0.0328479 0.0302698 0.0204745 0.0146139 0.0130633 0.011303 0.0284939 0.0153643 0.00856395 0.0183885 0.00582004 0.00215769 0.00162696 0.00152496 0.00151502 0.00144747 0.000771113 0.000647861 0.000603414 0.000465922 0.000336294 0.000210539 0.000194754 0.00015927 0.000165407 0.000115567 0.000127971
threshold=1.0000000180025095e-35 1.0000000180025095e-35 1.5000000000000002 0.60502777777777794 49.45000000000001 20.500000000000004 6.1500000000000012 25.267857142857146 10.65 0.080128205128205135 1.0000000180025095e-35 19.937500000000004 5.6500000000000012 80.350000000000009 1.7645109419261508e-16 0.57500000000000007 5.9500000000000011 1.5000000000000002 5.6500000000000012 8.5000000000000018 1.5000000000000002 38.850000000000001 6.9500000000000011 3.9500000000000006 0.087121212121212141 6.5000000000000009 1.0000000180025095e-35 8.5000000000000018 0.52141666666666686 3.9500000000000006
decision_type=2 2 2 2 8 2 2 2 10 2 2 2 2 8 2 2 2 2 2 2 2 10 2 2 2 2 2 2 2 2
left_child=17 2 3 4 -2 7 -3 -4 9 -5 16 -12 -13 14 15 -7 25 20 -15 -19 -1 -17 -8 -21 26 -10 -22 -28 -29 -30
right_child=1 6 5 8 -6 13 22 -9 10 -11 11 12 -14 18 -16 21 -18 19 -20 23 24 -23 -24 -25 -26 -27 27 28 29 -31
leaf_value=-0.055831435116374263 0.04488605540279602 0.055052837790122239 0.034018380356011367 0.030922492941137136 0.023142663357947998 0.047096559816998944 0.057974604444430838 0.046067334546700915 0.04551078167895542 0.047363694141698276 0.046709699424669932 0.030535654424734729 0.043702125195544478 0.048083625450537314 0.0479614853420397 0.044028799516728501 0.048195077451321712 -0.057168919928975992 0.049886514490861483 -0.056917971492863623 -0.055580800570202787 0.045747548203189214 0.057463531361128486 -0.062014972946450309 -0.056047377877616295 0.046538401410309738 -0.056601141438921178 -0.056521264329853507 -0.056450794271744799 -0.059092450373106488
leaf_weight=31.837276216043392 0.27627923956606792 7.3128461742308017 0.46819322055671264 0.51279451430309542 0.38052280386909842 1.5373834011261327 8.4814591705799121 0.43299606605432928 0.88861586787970759 0.54212650289991871 0.46850013133371238 0.42968704213853903 0.69267220073379576 2.1457532751373956 1.8698235683259552 0.95770710363285649 1.4874549687374381 1.1863130022829853 2.313779454678297 0.043116915621794649 0.33702683661249411 1.0939794871956108 9.4041996244341117 0.12973329276428558 2.8087887872534338 0.95826848363503814 3.0968267820717306 0.12799977112445038 0.062484885624144226 0.17216404681676067
leaf_count=79279 10 28 34 39 39 28 18 8 20 15 12 37 24 31 25 21 25 3271 22 117 782 19 29 235 7068 20 7890 314 168 372
internal_value=7.15913e-09 0.0522381 0.0454568 0.0429028 0.0322889 0.0470234 0.0569359 0.0398076 0.0440686 0.0393717 0.0450746 0.0410316 0.0386614 0.047679 0.0465843 0.0458668 0.0470036 -0.0559829 0.049019 -0.0576235 -0.0559249 0.0449453 0.0577059 -0.0607435 -0.0563756 0.046044 -0.0566184 -0.0567195 -0.0577298 -0.058389
internal_weight=82.4568 42.655 17.4565 6.63692 0.656802 10.8196 25.1985 0.901189 5.98012 1.05492 4.9252 1.59086 1.12236 9.91843 5.45889 3.58907 3.33434 39.8017 4.45953 1.35916 38.4426 2.05169 17.8857 0.17285 6.60529 1.84688 3.7965 3.45948 0.362649 0.234649
internal_count=100000 504 429 241 49 188 75 42 192 54 138 73 61 146 93 68 65 99496 53 3623 95873 40 47 352 16594 40 9526 8744 854 540
is_linear=0
shrinkage=0.05


Tree=17
num_leaves=31
num_cat=0
split_feature=4 7 20 20 20 2 7 7 3 2 9 6 6 3 8 12 18 15 8 19 18 10 20 11 7 6 19 7 20 9
split_gain=92.8167 0.317839 0.0823629 0.055923 0.0417054 0.0302673 0.0582068 0.0240324 0.00944268 0.0083761 0.00816752 0.0119787 0.0318035 0.00634238 0.00605872 0.0066019 0.00467191 0.00204137 0.00176042 0.000709262 0.000551427 0.000487237 0.000333825 0.000193066 0.000111951 9.84836e-05 0.000141154 0.000122705 0.000100054 3.82867e-05
threshold=1.0000000180025095e-35 9.5000000000000018 5.3500000000000005 4.7500000000000009 4.8500000000000005 23.928571428571434 5.5000000000000009 7.5000000000000009 36.500000000000007 25.916666666666668 1.5000000000000002 0.79285714285714304 0.38750000000000007 31.500000000000004 3.5000000000000004 0.47500000000000003 0.11437908496732027 1.0000000180025095e-35 1.5000000000000002 8.5000000000000018 0.069047619047619066 1.0000000180025095e-35 3.9500000000000006 0.64752777777777792 2.5000000000000004 0.47222222222222227 8.5000000000000018 3.5000000000000004 3.9500000000000006 1.5000000000000002
decision_type=2 2 2 2 2 2 2 2 2 2 2 2 2 2 2 2 2 2 2 2 2 2 2 2 2 2 2 2 2 2
left_child=18 4 3 -3 5 6 -2 10 9 -4 11 12 -6 -9 15 -7 -10 -12 21 -20 -13 -1 -21 -19 -24 -23 -27 -28 -29 -26
right_child=1 2 8 -5 7 14 -8 13 16 -11 17 20 -14 -15 -16 -17 -18 23 19 22 -22 25 24 -25 29 26 27 28 -30 -31
leaf_value=-0.055175965860995935 0.041551432822679146 0.041134279165166189 0.054579620200399616 0.052433944298459538 0.04645776712224281 0.043666857614939325 0.0050293304421633765 0.051522591309878386 0.052813839272826651 0.056987844902413536 0.047632624102666284 0.045527321618228159 0.026796489771358564 0.047610176602573565 0.045927686669569728 0.036852806686054139 0.055637684566533112 0.04486028123502897 -0.05633373175445533 -0.056158981091787435 0.043889598036352048 -0.055425446432286023 -0.057272919400800475 0.045724741038366407 -0.059499964090189886 -0.0556800186456946 -0.056152188667210085 -0.055477035331919305 -0.059331197991863142 -0.060988696806612924
leaf_weight=27.295828853821149 0.29335756989894379 1.6676199732464763 5.0820512040518286 3.1886034115450457 0.46020376466913004 0.69602309312904276 0.1736841895035468 2.075265632243827 3.49996971245855 12.470997873460872 1.5467446024995295 1.1176822264096702 0.37188803602475673 2.0681996424682438 0.67894699552562077 0.72649295796873048 2.5188281408045441 1.1604039154481145 2.2945934310555454 0.079467392293736228 0.9515736917965113 4.4845790983235911 0.03317552906810306 1.4566833344288168 0.06924697951762937 4.5438412270159461 0.22115408850368101 0.02257371466839686 0.06628299894509837 0.11475795219303109
leaf_count=68821 20 36 31 24 15 21 38 25 33 33 19 22 39 29 13 30 14 20 6061 212 20 11451 79 22 137 11774 553 66 135 207
internal_value=-4.27506e-09 0.0514624 0.054483 0.0485537 0.0452296 0.0394828 0.0279695 0.0465465 0.0557046 0.0562906 0.0447735 0.0427369 0.0376705 0.0495697 0.0420416 0.0401869 0.0539956 0.0461926 -0.0553717 -0.0566312 0.0447742 -0.0552826 -0.0589318 0.0453414 -0.0599464 -0.0555944 -0.0557504 -0.0567827 -0.0583521 -0.0604284
internal_weight=81.4307 42.2052 28.4281 4.85622 13.7771 2.5685 0.467042 11.2086 23.5718 17.553 7.06518 2.90135 0.832092 4.14347 2.10146 1.42252 6.0188 4.16383 39.2255 2.59124 2.06926 36.6343 0.296648 2.61709 0.21718 9.33843 4.85385 0.310011 0.0888567 0.184005
internal_count=100000 504 171 60 333 122 58 211 111 64 157 96 54 54 64 51 47 61 99496 6696 42 92800 635 42 423 23979 12528 754 201 344
is_linear=0
shrinkage=0.05


Tree=18
num_leaves=31
num_cat=0
split_feature=4 5 11 8 16 20 20 8 2 20 3 8 2 8 18 16 16 0 18 8 20 11 19 10 20 7 6 19 7 20
split_gain=89.4092 0.676296 0.028655 0.0274634 0.0349475 0.0242917 0.0231513 0.0596521 0.146158 0.0102886 0.00838381 0.016886 0.0220843 0.00904925 0.00877047 0.00519137 0.00409139 0.00341494 0.00212315 0.00136046 0.000799733 0.000564512 0.000540432 0.000379699 0.000256465 8.58523e-05 7.65633e-05 0.00010844 9.40496e-05 7.74618e-05
threshold=1.0000000180025095e-35 1.0000000180025095e-35 0.58313888888888898 3.5000000000000004 46.650000000000013 4.2500000000000009 4.0500000000000007 4.5000000000000009 17.414285714285715 6.2500000000000009 20.500000000000004 1.5000000000000002 25.464285714285719 2.5000000000000004 0.054093567251461992 43.150000000000013 80.350000000000009 1.7645109419261508e-16 0.095454545454545472 1.5000000000000002 5.7500000000000009 0.73463888888888895 8.5000000000000018 1.0000000180025095e-35 3.9500000000000006 2.5000000000000004 0.47222222222222227 8.5000000000000018 3.5000000000000004 3.9500000000000006
decision_type=2 2 2 2 8 2 2 2 2 2 2 2 2 2 2 10 8 2 2 2 2 2 2 2 2 2 2 2 2 2
left_child=19 2 3 4 -2 6 7 8 -4 -3 11 -7 -13 14 15 -12 17 -15 -16 23 -18 -11 -21 -1 -24 -26 -25 -28 -29 -30
right_child=1 9 5 -5 -6 10 -8 -9 -10 21 13 12 -14 16 18 -17 20 -19 -20 22 -22 -23 24 26 25 -27 27 28 29 -31
leaf_value=-0.0546548621136883 0.042398821163775247 0.054487633306753686 0.046206361663181782 0.043390327704934228 0.018804577350243074 0.045155954408256815 0.041687765686965042 0.040063699796297196 -0.066491728856311327 0.057017576712566409 0.036720238032516367 0.028030505169243537 0.043973872473332516 0.043713490545399171 0.045434344526765084 0.042486977067124801 0.046387107734453044 0.04656699436572595 0.042847165841527743 -0.055684713814685996 0.047938472083740351 0.056445899167110986 -0.055529289891873813 -0.054877069455549314 -0.05651942941858458 -0.059310727020789045 -0.055103772577594128 -0.055523343922297019 -0.054921721983546237 -0.058343420130154956
leaf_weight=26.882338550523855 0.27053445548517874 7.0023250530939576 0.065754327923061906 0.63037138339132071 0.37378762866137549 1.2177376407198601 0.76132580614648759 0.25379670335678384 0.051147796795703471 9.4788576513528842 0.66913131321780184 0.43281235545873631 0.43600773112848401 2.6265187598764896 2.3047941301483665 0.93643960100598633 1.6255704503273594 1.7451521307229994 1.208939195377752 2.2542367023415859 1.6989507779944686 7.9317330983467391 0.078094037628034019 4.4140909485868161 0.03255148816970177 0.17919274888117798 4.4701836415042635 0.21742573147639621 0.022217948659090325 0.064726405922556296
leaf_count=68821 9 29 2 14 35 20 18 11 53 22 29 31 10 44 42 23 21 22 26 6061 19 24 212 11451 79 344 11774 553 66 135
internal_value=1.87586e-08 0.050746 0.0431858 0.0359704 0.0287112 0.0437594 0.0366983 0.0264511 -0.00310206 0.0561062 0.0442958 0.0413566 0.0360315 0.0447743 0.0431452 0.0400837 0.0458579 0.0448526 0.0445442 -0.0548285 0.0471799 0.0567571 -0.055946 -0.0547497 -0.0579784 -0.0588816 -0.0550272 -0.055166 -0.0560791 -0.057469
internal_weight=80.3367 41.7217 17.3088 1.27469 0.644322 16.0341 1.13202 0.370699 0.116902 24.4129 14.9021 2.08656 0.86882 12.8155 5.1193 1.60557 7.69619 4.37167 3.51373 38.6151 3.32452 17.4106 2.54407 36.071 0.289838 0.211744 9.18864 4.77455 0.30437 0.0869444
internal_count=100000 504 429 58 44 371 84 66 55 75 287 61 41 226 120 52 106 66 68 99496 40 46 6696 92800 635 423 23979 12528 754 201
is_linear=0
shrinkage=0.05


Tree=19
num_leaves=31
num_cat=0
split_feature=4 5 11 8 16 20 20 8 2 20 3 8 2 8 18 16 16 0 2 8 11 11 19 10 20 1 1 7 6 19
split_gain=86.2108 0.710361 0.032187 0.0326366 0.0476678 0.0229629 0.0203117 0.0512561 0.135443 0.0133159 0.00827955 0.017213 0.0223547 0.010024 0.00974743 0.00526732 0.00443569 0.00383407 0.00195796 0.00105135 0.000850129 0.000620535 0.000412832 0.000295771 0.000197343 9.05371e-05 8.80299e-05 6.59286e-05 6.56956e-05 8.88029e-05
threshold=1.0000000180025095e-35 1.0000000180025095e-35 0.58313888888888898 3.5000000000000004 46.650000000000013 4.2500000000000009 4.0500000000000007 4.5000000000000009 17.414285714285715 6.2500000000000009 20.500000000000004 1.5000000000000002 25.464285714285719 2.5000000000000004 0.054093567251461992 43.150000000000013 80.350000000000009 1.7645109419261508e-16 28.450000000000003 1.5000000000000002 0.65702777777777788 0.73463888888888895 8.5000000000000018 1.0000000180025095e-35 3.9500000000000006 1.0000000180025095e-35 0.12543706293706297 2.5000000000000004 0.47222222222222227 8.5000000000000018
decision_type=2 2 2 2 8 2 2 2 2 2 2 2 2 2 2 10 8 2 2 2 2 2 2 2 2 2 2 2 2 2
left_child=19 2 3 4 -2 6 7 8 -4 -3 11 -7 -13 14 15 -12 17 -15 -16 23 -18 -11 26 -1 -24 -25 -21 -26 -27 -30
right_child=1 9 5 -5 -6 10 -8 -9 -10 21 13 12 -14 16 18 -17 20 -19 -20 22 -22 -23 24 25 27 28 -28 -29 29 -31
leaf_value=-0.054193117611804613 0.041495400685250622 0.053756938412914984 0.045129076041230759 0.042486363636974327 0.013002002472274518 0.044366932512201224 0.040747460567201452 0.039019553520077695 -0.064602645619709839 0.056670745132508804 0.035602653970246333 0.027023207646503011 0.043081658080769636 0.042825247302037947 0.044778383892723976 0.041427191984891344 0.047303936866384871 0.045854145839465565 0.042417103087408314 -0.054036038577971582 0.045700655458899134 0.056070867208169201 -0.05497164859174182 -0.054043718403054788 -0.055852849117441219 -0.054429063644892639 -0.055202184734812337 -0.058325618603286659 -0.054653376989403868 -0.055589424135165461
leaf_weight=26.445557573955739 0.27148546004900953 6.6070616163779077 0.066609622095713972 0.62380978371948004 0.31955739035038278 1.2278592926450067 0.75938756694085896 0.25334386643953621 0.048667279188521206 9.3628742247819918 0.66605296521447399 0.42745493026450265 0.43960178922861814 2.5944433398544788 1.9281879210611808 0.9303213597740978 1.5979834126774224 1.749207120388746 1.6117381313233634 0.17581091664032999 1.7132687472039831 7.989852732513099 0.076631096017081179 0.88322556918137607 0.031885723321465775 3.9148518234142085 2.0353300150018185 0.17432971371454187 3.9608527206873987 0.27069637595559459
leaf_count=68821 9 29 2 14 35 20 18 11 53 22 29 31 10 44 33 23 17 22 35 433 23 24 212 2148 79 10420 5628 344 10724 687
internal_value=-8.29459e-11 0.0500991 0.0423557 0.0345093 0.02609 0.0429509 0.0360728 0.0264428 -0.00119715 0.0556672 0.0434721 0.0405583 0.0351649 0.0439493 0.0422406 0.038997 0.0450959 0.044045 0.0437033 -0.0543472 0.0464744 0.0563945 -0.0553395 -0.0542775 -0.0571382 -0.0545246 -0.0551095 -0.0579433 -0.0545767 -0.0547133
internal_weight=79.1579 41.1888 17.229 1.21485 0.591043 16.0141 1.12801 0.368621 0.115277 23.9598 14.8861 2.09492 0.867057 12.7912 5.1363 1.59637 7.6549 4.34365 3.53993 37.9692 3.31125 17.3527 2.49399 35.4752 0.282847 9.02963 2.21114 0.206215 8.1464 4.23155
internal_count=100000 504 429 58 44 371 84 66 55 75 287 61 41 226 120 52 106 66 68 99496 40 46 6696 92800 635 23979 6061 423 21831 11411
is_linear=0
shrinkage=0.05


Tree=20
num_leaves=31
num_cat=0
split_feature=4 7 20 20 11 7 6 20 6 3 20 13 9 2 11 16 20 3 18 9 19 7 20 6 19 20 1 1 18 7
split_gain=83.1603 0.399787 0.0957036 0.0533076 0.0447676 0.0298609 0.0236711 0.0175651 0.0158835 0.013675 0.0107029 0.016881 0.018184 0.00806982 0.00713979 0.00701301 0.00250301 0.00358633 0.00147804 0.000531433 0.00026051 0.000234018 0.000117687 9.70325e-05 8.24136e-05 5.33194e-05 4.17647e-05 4.07616e-05 3.87199e-05 2.69756e-05
threshold=1.0000000180025095e-35 9.5000000000000018 5.3500000000000005 4.8500000000000005 0.58313888888888898 7.5000000000000009 0.5634920634920636 5.4500000000000011 0.75735294117647067 36.500000000000007 4.2500000000000009 0.35000000000000003 2.5000000000000004 26.291666666666668 0.69513888888888908 63.150000000000013 6.7500000000000009 33.500000000000007 0.069047619047619066 1.5000000000000002 8.5000000000000018 1.5000000000000002 3.9500000000000006 0.79285714285714304 8.5000000000000018 3.9500000000000006 1.0000000180025095e-35 1.0000000180025095e-35 0.080128205128205135 2.5000000000000004
decision_type=2 2 2 2 2 2 2 2 2 2 2 2 2 2 2 8 2 2 2 2 2 2 2 2 2 2 2 2 2 2
left_child=19 4 3 -3 6 7 -2 10 -7 13 11 -6 -13 -4 -12 -11 17 18 -9 21 26 -1 -22 24 27 -26 -21 -23 -25 -27
right_child=1 2 9 -5 5 8 -8 16 -10 15 14 12 -14 -15 -16 -17 -18 -19 -20 20 22 23 -24 28 25 29 -28 -29 -30 -31
leaf_value=-0.053825896930425027 0.038747916962803164 0.039662543794714566 0.053569930830553628 0.050700658329220084 0.041089111187066596 0.043311444293466596 0.024411503789337138 0.042385718038432725 0.049546387891731158 0.053652080937859503 0.036753889454266268 0.012708164714374463 0.035761178489891153 0.055818179774519673 0.042379428100236372 0.050161076207631917 0.045465076788611287 0.040455405113177079 0.044782064355165067 -0.053628834507796014 -0.054504548844916706 -0.05363683233445643 -0.057647525513188115 -0.054209639063488947 -0.054203505461827797 -0.054890555293332505 -0.054750965255062123 -0.054379577832656081 -0.053872323539852378 -0.056360635325354992
leaf_weight=29.857800428930204 0.7411340414546419 1.8132962996023732 6.4211803772486808 2.7566537542734295 0.32141684892121558 1.8734861414995974 0.47084272874053568 1.1312167223077274 2.2460342045524158 3.3911182498559347 0.96573185152374241 0.15841465315315872 0.18595002923393622 10.547426502220331 1.3559461792465297 2.4985839321743697 1.0516389461699871 1.2068279805243944 1.4923698890488593 0.090341924777020632 0.04006237894645881 0.20231040730141092 0.11609387426869944 1.3583189931232484 0.069310809223679715 0.045809985371306539 1.0094174211553761 2.1243556854315102 2.2767169901926536 0.097880749439354986
leaf_count=79279 26 37 35 23 13 37 30 24 27 21 30 34 12 29 29 26 18 31 22 225 117 502 235 3722 189 117 3046 5771 6072 221
internal_value=-5.28354e-09 0.0494854 0.0529263 0.0463209 0.0423362 0.043262 0.0331783 0.0414565 0.0467108 0.0542469 0.0384368 0.0328481 0.0251563 0.0549674 0.0400394 0.0521711 0.0433044 0.0427112 0.0437488 -0.0539191 -0.0549301 -0.0538838 -0.0568412 -0.054164 -0.0544012 -0.0553425 -0.0546588 -0.054315 -0.0539984 -0.055892
internal_weight=77.9177 40.6293 27.4283 4.56995 13.201 11.989 1.21198 7.86951 4.11952 22.8583 2.98746 0.665782 0.344365 16.9686 2.32168 5.8897 4.88205 3.83041 2.62359 37.2884 1.25592 36.0325 0.156156 6.1747 2.53967 0.213002 1.09976 2.32667 3.63504 0.143691
internal_count=100000 504 171 60 333 277 56 213 64 111 118 59 46 64 59 47 95 77 46 99496 3623 95873 352 16594 6800 527 3271 6273 9794 338
is_linear=0
shrinkage=0.05


Tree=21
num_leaves=31
num_cat=0
split_feature=4 5 11 8 16 3 6 2 8 8 18 3 7 2 18 16 16 2 0 3 16 8 19 10 1 1 7 6 19 7
split_gain=80.1264 0.871463 0.0429573 0.0350399 0.0632003 0.0151814 0.0206249 0.0384873 0.0206205 0.0124825 0.00858357 0.00944503 0.00858485 0.00834623 0.00374498 0.0029384 0.0025046 0.00210526 0.00193449 0.000975322 0.00080125 0.00063532 0.000245532 0.000181781 5.57389e-05 5.39409e-05 4.58589e-05 4.01012e-05 5.39944e-05 4.23892e-05
threshold=1.0000000180025095e-35 1.0000000180025095e-35 0.58313888888888898 3.5000000000000004 46.650000000000013 20.500000000000004 0.8377192982456142 24.845238095238098 2.5000000000000004 3.5000000000000004 0.054093567251461992 33.500000000000007 8.5000000000000018 26.633333333333336 0.069047619047619066 54.650000000000013 71.950000000000017 36.416666666666679 1.7645109419261508e-16 29.000000000000004 65.550000000000011 1.5000000000000002 8.5000000000000018 1.0000000180025095e-35 1.0000000180025095e-35 0.12543706293706297 3.5000000000000004 0.47222222222222227 8.5000000000000018 2.5000000000000004
decision_type=2 2 2 2 8 2 2 2 2 2 2 2 2 2 2 8 8 2 2 2 8 2 2 2 2 2 2 2 2 2
left_child=21 2 3 4 -2 6 7 8 -4 10 13 18 -13 15 20 -7 19 -15 -12 -11 -3 23 25 -1 -25 -23 -24 -26 -29 -30
right_child=1 14 5 -5 -6 9 -8 -9 -10 16 11 12 -14 17 -16 -17 -18 -19 -20 -21 -22 22 26 24 27 -27 -28 28 29 -31
leaf_value=-0.0534131384547476 0.039350896892010122 0.055988609111657407 0.030202977736814005 0.039350833010099381 0.0049675787073113833 0.037362625668510577 0.041580053026640043 0.040204961764155875 0.0087011278060801431 0.043494802512018205 0.042181959316549472 0.035710766548593509 0.04161899146892923 0.038598598135477787 0.054334494789899525 0.032045440348764088 0.044431532432221282 0.042112366603466234 0.044918413871274446 0.041616518817050793 0.055239131857212631 -0.05328759792751403 -0.054859064574984365 -0.053293823758276175 -0.05360223589579638 -0.054217373492894072 -0.056225706298007709 -0.053781058186054047 -0.053954525086394201 -0.055239948679494159
leaf_weight=25.476954338664655 0.25766732275951898 7.8711853374261418 0.26258776598842748 0.56728031765669584 0.27767361979931593 0.48067454004194421 1.2243696576333603 0.61989033804275095 0.19379429658874869 1.1079076483147221 1.2489816804300065 1.0051356252515691 1.583376742317341 0.96805418014992006 8.6890699514187855 0.56552215764531877 2.6994571608956903 0.76169864245457575 1.3374267161125315 1.8372761266655286 6.5199985685758302 0.16954317651106943 0.094624413060955592 0.85154566547134702 3.7676113496127073 1.9516485232452396 0.17473849296220578 3.8073993491125293 0.14421947352820996 0.11550078238360584
leaf_count=68821 9 19 17 14 35 16 23 16 29 16 29 38 30 27 34 25 38 17 18 32 22 433 242 2148 10420 5628 393 10724 393 294
internal_value=-1.02152e-09 0.0488268 0.0402357 0.0306921 0.0215168 0.0408977 0.0371415 0.0320921 0.0210726 0.0415333 0.0402568 0.04146 0.0393248 0.0380137 0.0551542 0.0344884 0.0433314 0.0401459 0.043597 0.0423231 0.0556491 -0.0535356 -0.0543236 -0.0534805 -0.053678 -0.0541431 -0.0557456 -0.0537198 -0.0538286 -0.0545262
internal_weight=76.6328 40.079 16.9988 1.10262 0.535341 15.8962 2.30064 1.07627 0.456382 13.5955 7.95087 5.17492 2.58851 2.77595 23.0803 1.0462 5.64464 1.72975 2.58641 2.94518 14.3912 36.5538 2.39055 34.1632 8.68628 2.12119 0.269363 7.83473 4.06712 0.25972
internal_count=100000 504 429 58 44 371 85 62 46 286 200 115 68 85 75 41 86 44 47 48 41 99496 6696 92800 23979 6061 635 21831 11411 687
is_linear=0
shrinkage=0.05


Tree=22
num_leaves=31
num_cat=0
split_feature=4 5 9 6 20 12 2 16 3 2 11 20 16 11 6 3 11 6 20 8 19 10 2 20 7 6 19 7 20 9
split_gain=77.3409 0.910904 0.0417825 0.0699707 0.0895483 0.206398 0.379097 0.0281706 0.0233274 0.0216904 0.0134638 0.0126109 0.0102548 0.00357791 0.00292085 0.00131294 0.00122044 0.0012114 0.00107983 0.000494385 0.000190298 0.000142278 0.000138874 9.27642e-05 3.08967e-05 2.84186e-05 3.92998e-05 3.45072e-05 2.92117e-05 1.05645e-05
threshold=1.0000000180025095e-35 1.0000000180025095e-35 1.5000000000000002 0.75735294117647067 6.2500000000000009 0.27500000000000008 17.071428571428573 inf 21.500000000000004 25.267857142857146 0.64752777777777792 6.2500000000000009 80.350000000000009 0.63947222222222233 0.60769230769230786 33.500000000000007 0.72708333333333341 0.90454545454545465 4.4500000000000011 1.5000000000000002 8.5000000000000018 1.0000000180025095e-35 24.845238095238098 3.9500000000000006 2.5000000000000004 0.47222222222222227 8.5000000000000018 3.5000000000000004 3.9500000000000006 1.5000000000000002
decision_type=2 2 2 2 2 2 2 8 2 2 2 2 8 2 2 2 2 2 2 2 2 2 2 2 2 2 2 2 2 2
left_child=19 2 3 4 5 -2 -7 10 9 -4 -5 -3 13 -10 -14 -15 -13 -12 -8 21 -21 -1 -19 -22 -25 -23 -27 -28 -29 -26
right_child=1 11 8 7 -6 6 18 -9 12 -11 17 16 14 15 -16 -17 -18 22 -20 20 23 25 -24 24 29 26 27 28 -30 -31
leaf_value=-0.0530863244823776 0.041116330883021017 0.05293636652904337 0.027564306687531171 0.034872336102898534 0.03828930877175829 0.042703522119595161 -0.071941452684979354 0.030650870887365785 0.038177955223580202 0.041868181532517354 0.040333961630622035 0.055971112081143741 0.043153794656740324 0.042564845248069492 0.045900641790201355 0.040714417132345262 0.055102664045720832 0.042605037463601975 -0.081282577041888598 -0.053738194446645675 -0.053636221419781395 -0.053228125509582148 0.041860168268275377 -0.054265561598506963 -0.055498910414668048 -0.05337221008961375 -0.053635782709680127 -0.053244097948946259 -0.055436089679618397 -0.056334518255879575
leaf_weight=24.978792983805761 0.26441077142954117 6.2908053738065091 0.54506779962684848 0.93649450270459045 0.59794794709887356 0.12199423601850867 0.046599018794950098 0.90994653513189394 1.0162521454039932 0.51586711872369051 1.3258485747501256 8.8050439208745974 2.5242227829876365 1.6779027286102066 1.5695594748249275 2.2361299740150571 7.4839816712774327 1.1532646540435965 0.092057351255789399 2.0741670890711243 0.071859215211588778 4.0915676105942094 1.3680291126947848 0.029801783530274406 0.060852318478282541 4.1364330519572832 0.20089656455093052 0.020513490046141669 0.058668903191573918 0.099960999068571255
leaf_count=68821 8 29 36 32 24 3 30 38 26 9 26 21 36 26 16 39 25 19 37 6061 212 11451 24 79 137 11774 553 66 135 207
internal_value=1.29565e-08 0.0482671 0.0394888 0.036465 0.0250587 0.00999145 -0.0215824 0.0387148 0.0415327 0.0345194 0.0402487 0.0548378 0.0423572 0.0408213 0.0442069 0.0415077 0.0555721 0.0415575 -0.0781433 -0.0531955 -0.0538987 -0.0531465 0.0422009 -0.0551671 -0.0557443 -0.0533231 -0.053411 -0.0539842 -0.0548682 -0.0560183
internal_weight=75.3049 39.4814 16.9016 6.81659 1.12301 0.525061 0.260651 5.69358 10.085 1.06093 4.78364 22.5798 9.02407 4.93028 4.09378 3.91403 16.289 3.84714 0.138656 35.8235 2.33664 33.4869 2.52129 0.262474 0.190615 8.50808 4.41651 0.280079 0.0791824 0.160813
internal_count=100000 504 429 241 102 78 70 139 188 45 101 75 143 91 52 65 46 69 67 99496 6696 92800 43 635 423 23979 12528 754 201 344
is_linear=0
shrinkage=0.05


Tree=23
num_leaves=31
num_cat=0
split_feature=4 5 11 8 11 20 20 8 2 9 6 20 6 20 15 0 8 11 20 11 20 8 19 10 20 1 1 2 6 19
split_gain=74.7361 0.938644 0.0408358 0.0330638 0.0299405 0.02942 0.0287875 0.0535958 0.129066 0.0245787 0.0399575 0.060918 0.0907211 0.014405 0.00521515 0.00400663 0.00236445 0.00662862 0.00189834 0.0015747 0.00156861 0.000385411 0.000147527 0.000111576 7.22316e-05 3.43947e-05 3.33446e-05 2.92776e-05 2.45707e-05 3.25762e-05
threshold=1.0000000180025095e-35 1.0000000180025095e-35 0.58313888888888898 3.5000000000000004 0.50586111111111121 4.2500000000000009 4.0500000000000007 4.5000000000000009 17.414285714285715 1.5000000000000002 0.79285714285714304 6.6500000000000012 0.41428571428571431 6.3500000000000005 1.0000000180025095e-35 1.7645109419261508e-16 1.0000000180025095e-35 0.68002777777777801 4.9500000000000011 0.73463888888888895 5.5500000000000007 1.5000000000000002 8.5000000000000018 1.0000000180025095e-35 3.9500000000000006 1.0000000180025095e-35 0.12543706293706297 22.928571428571434 0.47222222222222227 8.5000000000000018
decision_type=2 2 2 2 2 2 2 2 2 2 2 2 2 2 2 2 2 2 2 2 2 2 2 2 2 2 2 2 2 2
left_child=21 2 3 4 -2 6 7 8 -4 10 11 12 -7 -3 -11 18 17 -12 -16 -15 -18 23 26 -1 -24 -25 -23 -10 -27 -30
right_child=1 13 5 -5 -6 9 -8 -9 27 14 16 -13 -14 19 15 -17 20 -19 -20 -21 -22 22 24 25 -26 28 -28 -29 29 -31
leaf_value=-0.052792382177211938 0.03621948897379839 0.052534531126505295 0.0408189885857368 0.037968744339627519 0.011610470298801256 0.03497360375016223 0.037390221725983878 0.033648377814213086 -0.060843956252148848 0.043485995162548002 0.041031418617818817 0.04091605465836641 -0.0082228096737225666 0.05579345341034634 0.041514356225212573 0.042609658798407835 0.039172790430401144 0.03600403173690131 0.039024182671303573 0.054783693009503046 0.041769076126915688 -0.05268929147161721 -0.053284518590958799 -0.052696522612263021 -0.055166906184679648 -0.052943875892990516 -0.053435193245521186 -0.063118275706132224 -0.053087176377262069 -0.053679378813675217
leaf_weight=24.48053108289605 0.19475547201000398 6.343485911376777 0.06613316829316207 0.56409384496510029 0.33828007738338783 0.27722033625468512 0.73546660481952131 0.24945656338240951 0.030441945244092494 3.0280282965395582 1.2655742242932322 0.49027001112699509 0.21645639871712774 8.9318724721670133 1.1477188931312414 2.1370813911780715 1.0515784871531653 1.3604937425116075 2.2971984606701881 6.8008242556825271 1.3021696629002688 0.16292255668668043 0.070271877048071363 0.81888846697984075 0.18546310169040225 3.6146111965936143 1.8646895803103689 0.02644157235044986 3.6490352135733706 0.24800241482444096
leaf_count=68821 9 30 2 14 35 15 18 11 30 38 22 12 40 22 17 29 21 29 41 23 23 433 212 2148 423 10420 5628 23 10724 687
internal_value=-1.71667e-08 0.0477708 0.0388567 0.0295311 0.0206019 0.0395092 0.0316546 0.0203294 -0.0066793 0.0401063 0.0376391 0.0284319 0.0160338 0.0545459 0.0418152 0.0409089 0.0394583 0.0384269 0.0398538 0.055357 0.0406091 -0.0528899 -0.053518 -0.0528462 -0.0546497 -0.0530042 -0.0533753 -0.0619011 -0.0530378 -0.0531249
internal_weight=73.9495 38.855 16.7789 1.09713 0.533036 15.6817 1.10794 0.372473 0.123017 14.5738 5.96376 0.983947 0.493677 22.0762 8.61003 5.582 4.97982 2.62607 3.44492 15.7327 2.35375 35.0944 2.28335 32.8111 0.255735 8.33054 2.02761 0.0568835 7.51165 3.89704
internal_count=100000 504 429 58 44 371 84 66 55 287 162 67 55 75 125 87 95 51 58 45 44 99496 6696 92800 635 23979 6061 53 21831 11411
is_linear=0
shrinkage=0.05


Tree=24
num_leaves=31
num_cat=0
split_feature=4 5 11 8 20 11 20 8 2 18 3 8 8 20 18 15 8 20 3 8 8 19 20 7 1 2 10 19 7 20
split_gain=71.1341 0.934002 0.0398499 0.0305863 0.0279746 0.0261379 0.0258097 0.048872 0.117843 0.0186729 0.0164388 0.0306061 0.0160548 0.0121927 0.00902704 0.0060924 0.00688132 0.00259702 0.00241363 0.000804076 0.000123921 0.000163211 6.26191e-05 2.78962e-05 2.07322e-05 2.03338e-05 1.80589e-05 1.93662e-05 3.46533e-05 2.92875e-05
threshold=1.0000000180025095e-35 1.0000000180025095e-35 0.58313888888888898 3.5000000000000004 4.2500000000000009 0.50586111111111121 4.0500000000000007 4.5000000000000009 17.414285714285715 0.069047619047619066 20.500000000000004 1.5000000000000002 1.5000000000000002 4.9500000000000011 0.060661764705882359 1.0000000180025095e-35 3.5000000000000004 5.9500000000000011 33.500000000000007 3.5000000000000004 1.5000000000000002 8.5000000000000018 3.9500000000000006 2.5000000000000004 1.0000000180025095e-35 23.464285714285719 1.0000000180025095e-35 8.5000000000000018 2.5000000000000004 3.9500000000000006
decision_type=2 2 2 2 2 2 2 2 2 2 2 2 2 2 2 2 2 2 2 2 2 2 2 2 2 2 2 2 2 2
left_child=20 2 3 5 6 -2 7 8 -4 19 11 -6 14 -13 -12 17 -17 -14 -16 -3 24 -22 -23 -24 -1 -10 -26 -28 -29 -30
right_child=1 9 4 -5 10 -7 -8 -9 25 -11 12 13 15 -15 18 16 -18 -19 -20 -21 21 22 23 -25 26 -27 27 28 29 -31
leaf_value=-0.05245518870602757 0.034869983335345793 0.055364168359740229 0.039587245451837547 0.037031407325231705 0.040013109945339714 0.011842801162824336 0.036467799705164339 0.03279204890231379 -0.059765877052655396 0.051950967763245162 0.032991684875803978 0.034478761247009597 0.04134110822236229 0.021667324329848768 0.040516537716604226 0.038129901770855512 0.041521032285102531 0.044273070411767784 0.037182513546962739 0.054592300366488815 -0.0525499131620503 -0.052623263815223233 -0.052956912263388313 -0.05466904973586182 -0.052281652297525905 -0.061782262551451854 -0.052352357388124507 -0.052433917312220225 -0.052096590552224764 -0.053975742934591467
leaf_weight=2.459805297956339 0.1940241206903035 7.099213244859131 0.064276699442415319 0.5540430648252368 1.2014441636856634 0.33776118501555175 0.72990808938629925 0.24926198681350797 0.034675991802942008 8.0075136311352235 1.0025901221670204 0.32598535309080023 1.4441005275584742 0.43159040831960738 1.0088115974795075 2.5266097246203572 3.6673595561878756 1.5833548919763414 1.1752383116399867 6.4300711285322905 1.9731320917489932 0.06845030715339806 0.028220676584169269 0.1515575111261569 22.202676476677883 0.019553084915969521 6.9058968793542581 0.30508258310146619 0.028157560562249273 0.078654129727510735
leaf_count=6576 9 23 2 14 20 35 18 11 35 34 30 12 25 29 17 58 51 19 26 18 6061 212 79 344 64393 18 20645 892 95 199
internal_value=-5.30238e-08 0.0470008 0.038069 0.0288099 0.0387191 0.0202444 0.0310256 0.0202244 -0.00621014 0.0538647 0.0393069 0.0350504 0.039979 0.0271801 0.0369195 0.0410362 0.0401377 0.0428745 0.0387225 0.0549973 -0.0523408 -0.0527019 -0.0539103 -0.0544003 -0.0523157 -0.0604929 -0.0523041 -0.0523722 -0.0527053 -0.0534804
internal_weight=72.289 38.0874 16.5506 1.08583 15.4648 0.531785 1.09768 0.367768 0.118506 21.5368 14.3671 1.95902 12.4081 0.757576 3.18664 9.22142 6.19397 3.02746 2.18405 13.5293 34.2016 2.22136 0.248228 0.179778 31.9803 0.0542291 29.5205 7.31779 0.411894 0.106812
internal_count=100000 504 429 58 371 44 84 66 55 75 287 61 226 41 73 153 109 44 43 41 99496 6696 635 423 92800 53 86224 21831 1186 294
is_linear=0
shrinkage=0.05


Tree=25
num_leaves=31
num_cat=0
split_feature=4 5 11 18 8 12 8 18 15 6 2 0 7 6 6 14 18 2 18 1 19 8 7 7 6 10 18 0 0 7
split_gain=67.5917 0.932932 0.0485042 0.0447386 0.0407653 0.0247989 0.0144635 0.0102712 0.0140147 0.0125305 0.0078042 0.00648362 0.0100186 0.00657701 0.00520268 0.00267794 0.00204641 0.00169532 0.00151908 0.000199725 3.78396e-05 0.000183946 3.32395e-05 2.38628e-05 2.04223e-05 1.87686e-05 1.54116e-05 1.084e-05 1.00724e-05 9.58214e-06
threshold=1.0000000180025095e-35 1.0000000180025095e-35 0.58313888888888898 0.069047619047619066 3.5000000000000004 0.72500000000000009 3.5000000000000004 0.054093567251461992 1.0000000180025095e-35 0.79285714285714304 25.267857142857146 1.0856612307063e-16 8.5000000000000018 0.79285714285714304 0.5634920634920636 3.5000000000000004 0.054093567251461992 30.450000000000003 0.11437908496732027 1.0000000180025095e-35 8.5000000000000018 1.5000000000000002 1.5000000000000002 3.5000000000000004 0.47222222222222227 1.0000000180025095e-35 0.080128205128205135 1.5000000000000002 -0.70000000000000007 7.5000000000000009
decision_type=2 2 2 2 2 2 2 2 2 2 2 2 2 2 2 2 2 2 2 2 2 2 2 2 2 2 2 2 2 2
left_child=19 2 4 16 5 -2 7 8 -4 14 15 12 13 -9 -10 -8 -3 -12 -13 -1 22 -22 -21 -23 28 -26 29 -28 -24 -27
right_child=1 3 6 -5 -6 -7 10 11 9 -11 17 18 -14 -15 -16 -17 -18 -19 -20 20 21 23 24 -25 25 26 27 -29 -30 -31
leaf_value=-0.052225978993417854 0.0055154889225985139 0.054276796734590196 0.029367400483981052 0.050074032763594262 0.036049857020978043 0.028400763605222229 0.034744028677798564 0.030256616266675376 0.035241143091035654 0.038580062981713709 0.041997760141282807 0.03889565583535802 0.039223949584844153 0.036777506308704723 0.02704142632003911 0.039116285081471774 0.05550698778284921 0.040035213323981071 0.041373508019685999 -0.051771667451286786 -0.051823111990289827 -0.05258868012393926 -0.051251950344767316 -0.053671842722518605 -0.051824726056278275 -0.051531710855026627 -0.051267729981810506 -0.050044897941140448 -0.051799613577435538 -0.052507943200206887
leaf_weight=2.558514066564384 0.25789929891471064 6.6901251371018606 0.92863558820681502 7.4542915485799304 0.5437728650867939 0.21880613197572529 0.79095887264702358 0.73795768478885315 0.38089251489145692 1.979136323032435 2.0423042671754956 1.4405402324046011 1.7094847960979676 0.81234172143740579 0.39310082874726504 0.62848387518897653 6.8336284169927239 2.3859683373011649 1.0839924369938669 23.296204252284959 2.7974884098221078 0.077002311765681841 0.089079284225590416 0.14970393021940254 0.48864770011277903 1.9107596263056623 0.41197339131031174 0.018957234395202249 1.4593082675419271 0.025471063010627293
leaf_count=7032 32 23 38 34 14 12 30 42 15 39 27 30 33 21 25 15 18 37 19 69698 8276 220 299 377 1434 6011 1383 66 4624 76
internal_value=-1.82964e-08 0.0462077 0.0372478 0.0531841 0.026693 0.0160198 0.0379511 0.0367434 0.034679 0.0364706 0.0399062 0.0380574 0.0365842 0.0336735 0.0310766 0.0366799 0.0548984 0.0409403 0.0399596 -0.0518015 -0.0517662 -0.0519341 -0.0517479 -0.0533039 -0.0516219 -0.0515426 -0.0514844 -0.0512139 -0.0517681 -0.0515446
internal_weight=70.5954 37.3123 16.3343 20.978 1.02048 0.476705 15.3138 9.46608 3.68177 2.75313 5.84772 5.78432 3.25978 1.5503 0.773993 1.41944 13.5238 4.42827 2.52453 33.2831 30.7246 3.02419 27.7004 0.226706 4.4042 2.85581 2.36716 0.430931 1.54839 1.93623
internal_count=100000 504 429 75 58 44 371 262 117 79 109 145 96 63 40 45 41 64 49 99496 92464 8873 83591 597 13893 8970 7536 1449 4923 6087
is_linear=0
shrinkage=0.05


Tree=26
num_leaves=31
num_cat=0
split_feature=4 5 3 9 15 9 6 20 2 2 3 3 16 2 0 20 3 3 3 6 1 20 10 19 7 20 7 9 6 18
split_gain=63.8147 0.92276 0.0783094 0.043578 0.0810552 0.0543065 0.0491028 0.0952515 0.192994 0.118523 0.0409948 0.0393654 0.0129524 0.00803147 0.00497661 0.00362044 0.00402337 0.00261441 0.00372926 0.00215044 0.000767928 0.000216971 0.000199438 0.00011867 0.000141477 0.000135426 0.00013267 6.94737e-05 4.70006e-05 2.91237e-05
threshold=1.0000000180025095e-35 1.0000000180025095e-35 33.500000000000007 1.5000000000000002 1.0000000180025095e-35 1.0000000180025095e-35 0.79285714285714304 6.5500000000000007 19.527777777777782 22.928571428571434 23.000000000000004 19.500000000000004 80.350000000000009 26.633333333333336 1.7645109419261508e-16 6.3500000000000005 30.500000000000004 33.500000000000007 44.500000000000007 0.57738095238095244 1.0000000180025095e-35 6.1500000000000012 1.0000000180025095e-35 8.5000000000000018 2.5000000000000004 3.9500000000000006 2.5000000000000004 1.0000000180025095e-35 0.65476190476190488 0.095454545454545472
decision_type=2 2 2 2 2 2 2 2 2 2 2 2 8 2 2 2 2 2 2 2 2 2 2 2 2 2 2 2 2 2
left_child=20 3 13 4 5 21 7 8 -6 -10 11 -5 14 -3 17 16 -8 -12 -19 -14 -1 -2 -22 24 27 -25 -27 29 -26 -24
right_child=1 2 -4 10 6 -7 15 -9 9 -11 12 -13 19 -15 -16 -17 -18 18 -20 -21 22 -23 23 25 28 26 -28 -29 -30 -31
leaf_value=-0.052020198809006581 0.0077606785506781368 0.053392114547843032 0.04813766657070051 0.021183939806618556 0.039583459766465906 0.031106689828671548 0.03840102798411478 0.038171046854622193 0.010051826180058248 -0.074460068889509637 0.038599933337741928 0.039892533446538592 0.040909631565766658 0.055851040094092919 0.04032766655369921 0.039599663943523988 0.034657799801498433 0.033238785588607843 0.037724521406803241 0.043337901717435075 -0.051188859721798957 0.0098305141368396753 -0.0511091874705542 -0.050412305704172794 -0.05070657015291985 -0.051192868668617435 -0.052947198742248583 -0.050696193621581877 -0.050208404900712912 -0.05066812681126838
leaf_weight=2.4823935851454726 0.24920610064873716 6.5955365146510321 7.1411308422684661 0.62422766775125527 0.187647302111145 0.59278248401824385 1.5825703534064817 0.5416957022389397 0.078904890338890254 0.087483043607790023 1.2165642173495119 0.51162467338144779 2.2230076998239396 6.6883592158555984 1.4780410168459637 1.7190625241491941 1.3137977508595211 0.87319508835207649 0.98712294548749924 1.5456930554937569 20.983445774705615 0.25736758229322731 4.2216643156280043 0.17618937256338618 1.0346197090402709 0.21864710528461728 0.2125123975565657 1.6977756058913653 0.87297426180157334 0.41068324513616961
leaf_count=7032 26 27 32 40 7 34 29 15 13 37 25 11 32 16 22 30 36 25 16 17 64393 14 13028 576 3493 671 536 5459 2988 1320
internal_value=-1.3253e-08 0.045308 0.0523602 0.0363447 0.03323 0.0208336 0.0357028 0.0249896 0.0048212 -0.0343826 0.0385213 0.0296109 0.0397372 0.0546302 0.0379431 0.0377819 0.0367031 0.0367976 0.035619 0.0419056 -0.0511752 0.00881227 -0.0511049 -0.0509058 -0.0508561 -0.0515803 -0.0520576 -0.0509698 -0.0504786 -0.0510701
internal_weight=68.8059 36.495 20.425 16.07 6.61052 1.09936 5.51116 0.895731 0.354035 0.166388 9.45948 1.13585 8.32362 13.2839 4.55492 4.61543 2.89637 3.07688 1.86032 3.7687 32.3109 0.506574 29.8285 8.84507 8.23772 0.607349 0.43116 6.33012 1.90759 4.63235
